{"learner":{"attributes":{"best_iteration":"49","best_score":"0.03782311453720304"},"feature_names":["Protocol","Flow Duration","Total Fwd Packets","Total Backward Packets","Fwd Packets Length Total","Bwd Packets Length Total","Fwd Packet Length Max","Fwd Packet Length Min","Fwd Packet Length Mean","Fwd Packet Length Std","Bwd Packet Length Max","Bwd Packet Length Min","Bwd Packet Length Mean","Bwd Packet Length Std","Flow Bytes/s","Flow Packets/s","Flow IAT Mean","Flow IAT Std","Flow IAT Max","Flow IAT Min","Fwd IAT Total","Fwd IAT Mean","Fwd IAT Std","Fwd IAT Max","Fwd IAT Min","Bwd IAT Total","Bwd IAT Mean","Bwd IAT Std","Bwd IAT Max","Bwd IAT Min","Fwd PSH Flags","Bwd PSH Flags","Fwd URG Flags","Bwd URG Flags","Fwd Header Length","Bwd Header Length","Fwd Packets/s","Bwd Packets/s","Packet Length Min","Packet Length Max","Packet Length Mean","Packet Length Std","Packet Length Variance","FIN Flag Count","SYN Flag Count","RST Flag Count","PSH Flag Count","ACK Flag Count","URG Flag Count","CWE Flag Count","ECE Flag Count","Down/Up Ratio","Avg Packet Size","Avg Fwd Segment Size","Avg Bwd Segment Size","Fwd Avg Bytes/Bulk","Fwd Avg Packets/Bulk","Fwd Avg Bulk Rate","Bwd Avg Bytes/Bulk","Bwd Avg Packets/Bulk","Bwd Avg Bulk Rate","Subflow Fwd Packets","Subflow Fwd Bytes","Subflow Bwd Packets","Subflow Bwd Bytes","Init Fwd Win Bytes","Init Bwd Win Bytes","Fwd Act Data Packets","Fwd Seg Size Min","Active Mean","Active Std","Active Max","Active Min","Idle Mean","Idle Std","Idle Max","Idle Min"],"feature_types":[],"gradient_booster":{"model":{"gbtree_model_param":{"num_parallel_tree":"1","num_trees":"100"},"iteration_indptr":[0,2,4,6,8,10,12,14,16,18,20,22,24,26,28,30,32,34,36,38,40,42,44,46,48,50,52,54,56,58,60,62,64,66,68,70,72,74,76,78,80,82,84,86,88,90,92,94,96,98,100],"tree_info":[0,1,0,1,0,1,0,1,0,1,0,1,0,1,0,1,0,1,0,1,0,1,0,1,0,1,0,1,0,1,0,1,0,1,0,1,0,1,0,1,0,1,0,1,0,1,0,1,0,1,0,1,0,1,0,1,0,1,0,1,0,1,0,1,0,1,0,1,0,1,0,1,0,1,0,1,0,1,0,1,0,1,0,1,0,1,0,1,0,1,0,1,0,1,0,1,0,1,0,1],"trees":[{"base_weights":[-4.225352E-2,9.879518E-2,-9.371728E-1,6.666667E-2,-9.786096E-2],"categories":[],"categories_nodes":[],"categories_segments":[],"categories_sizes":[],"default_left":[0,0,0,0,0],"id":0,"left_children":[1,-1,3,-1,-1],"loss_changes":[1.6457211E2,0E0,6.999161E0,0E0,0E0],"parents":[2147483647,0,0,2,2],"right_children":[2,-1,4,-1,-1],"split_conditions":[-5.989315E-1,9.879518E-2,6.2892765E-1,6.666667E-2,-9.786096E-2],"split_indices":[14,0,0,0,0],"split_type":[0,0,0,0,0],"sum_hessian":[1.765E2,8.2E1,9.45E1,2E0,9.25E1],"tree_param":{"num_deleted":"0","num_feature":"77","num_nodes":"5","size_leaf_vector":"1"}},{"base_weights":[-1.0989011E-2,-9.361702E-1,9.6629214E-1,-9.569892E-1,5E-2,9.772728E-2,-0E0,-9.884393E-2,-4.6666667E-1,-8.3333336E-2,6.0000002E-2],"categories":[],"categories_nodes":[],"categories_segments":[],"categories_sizes":[],"default_left":[0,0,0,0,0,0,0,0,0,0,0],"id":1,"left_children":[1,3,5,7,-1,-1,-1,-1,9,-1,-1],"loss_changes":[1.6546213E2,3.2890625E0,9.4433594E-1,9.72847E-1,0E0,0E0,0E0,0E0,3.4333339E0,0E0,0E0],"parents":[2147483647,0,0,1,1,2,2,3,3,8,8],"right_children":[2,4,6,8,-1,-1,-1,-1,10,-1,-1],"split_conditions":[-7.59425E-1,1.7563601E-1,-2.412898E-1,4.0851185E-1,5E-2,9.772728E-2,-0E0,-9.884393E-2,-2.49989E-1,-8.3333336E-2,6.0000002E-2],"split_indices":[7,68,1,36,0,0,0,0,4,0,0],"split_type":[0,0,0,0,0,0,0,0,0,0,0],"sum_hessian":[1.81E2,9.3E1,8.8E1,9.2E1,1E0,8.7E1,1E0,8.55E1,6.5E0,5E0,1.5E0],"tree_param":{"num_deleted":"0","num_feature":"77","num_nodes":"11","size_leaf_vector":"1"}},{"base_weights":[3.1122908E-2,8.418516E-1,-8.6581296E-1,3.268598E-1,8.993908E-2,-8.88233E-2,-3.2914054E-1,8.031625E-2,-7.0467375E-2,2.5997242E-2,-6.553791E-2],"categories":[],"categories_nodes":[],"categories_segments":[],"categories_sizes":[],"default_left":[0,0,0,0,0,0,0,0,0,0,0],"id":2,"left_children":[1,3,5,7,-1,-1,9,-1,-1,-1,-1],"loss_changes":[1.2895357E2,2.4655075E0,7.2086334E-1,5.9360666E0,0E0,0E0,1.1247151E0,0E0,0E0,0E0,0E0],"parents":[2147483647,0,0,1,1,2,2,3,3,6,6],"right_children":[2,4,6,8,-1,-1,10,-1,-1,-1,-1],"split_conditions":[-7.626271E-1,-2.4266267E-1,-2.135228E-1,6.2892765E-1,8.993908E-2,-8.88233E-2,-2.4265647E-1,8.031625E-2,-7.0467375E-2,2.5997242E-2,-6.553791E-2],"split_indices":[7,1,17,0,0,0,1,0,0,0,0],"split_type":[0,0,0,0,0,0,0,0,0,0,0],"sum_hessian":[1.7533347E2,9.212462E1,8.320884E1,9.929894E0,8.2194725E1,7.924329E1,3.9655442E0,6.944647E0,2.9852479E0,1.4857454E0,2.4797988E0],"tree_param":{"num_deleted":"0","num_feature":"77","num_nodes":"11","size_leaf_vector":"1"}},{"base_weights":[-3.562595E-2,-8.5889083E-1,8.749348E-1,-8.993909E-2,-1.5019087E-1,8.9915186E-2,3.2914054E-1,-6.8968855E-2,6.1821308E-2,-6.5403366E-3,6.1293285E-2],"categories":[],"categories_nodes":[],"categories_segments":[],"categories_sizes":[],"default_left":[0,0,0,0,0,0,0,0,0,0,0],"id":3,"left_children":[1,3,5,-1,7,-1,9,-1,-1,-1,-1],"loss_changes":[1.2587194E2,2.3953552E0,7.581253E-1,0E0,2.8996968E0,0E0,5.960727E-1,0E0,0E0,0E0,0E0],"parents":[2147483647,0,0,1,1,2,2,4,4,6,6],"right_children":[2,4,6,-1,8,-1,10,-1,-1,-1,-1],"split_conditions":[-7.593445E-1,4.0851185E-1,-2.135228E-1,-8.993909E-2,-2.49989E-1,8.9915186E-2,6.8210185E-2,-6.8968855E-2,6.1821308E-2,-6.5403366E-3,6.1293285E-2],"split_indices":[38,36,17,0,4,0,34,0,0,0,0],"split_type":[0,0,0,0,0,0,0,0,0,0,0],"sum_hessian":[1.6590904E2,8.716097E1,7.874807E1,8.2194725E1,4.966252E0,7.4782524E1,3.9655442E0,2.977902E0,1.9883499E0,1.980994E0,1.9845502E0],"tree_param":{"num_deleted":"0","num_feature":"77","num_nodes":"11","size_leaf_vector":"1"}},{"base_weights":[2.7026903E-2,7.9642075E-1,-8.0041814E-1,8.327095E-2,2.4091534E-1,-2.788212E-1,-8.226308E-1,6.871482E-2,-5.7932146E-2,-5.967262E-2,2.7212277E-2,-8.339263E-2,-1.38769895E-2],"categories":[],"categories_nodes":[],"categories_segments":[],"categories_sizes":[],"default_left":[0,0,0,0,0,0,0,0,0,0,0,0,0],"id":4,"left_children":[1,3,5,-1,7,9,11,-1,-1,-1,-1,-1,-1],"loss_changes":[1.09249016E2,1.591568E0,7.287941E-1,0E0,2.9084709E0,1.0189781E0,4.9303818E-1,0E0,0E0,0E0,0E0,0E0,0E0],"parents":[2147483647,0,0,1,1,2,2,4,4,5,5,6,6],"right_children":[2,4,6,-1,8,10,12,-1,-1,-1,-1,-1,-1],"split_conditions":[-7.6254654E-1,4.0851185E-1,-6.4600676E-1,8.327095E-2,6.2892765E-1,-2.4266471E-1,-2.4177027E-1,6.871482E-2,-5.7932146E-2,-5.967262E-2,2.7212277E-2,-8.339263E-2,-1.38769895E-2],"split_indices":[38,36,52,0,0,1,1,0,0,0,0,0,0],"split_type":[0,0,0,0,0,0,0,0,0,0,0,0,0],"sum_hessian":[1.6960358E2,8.790408E1,8.1699486E1,8.20454E1,5.8586802E0,3.890699E0,7.780879E1,3.8994963E0,1.9591842E0,2.41443E0,1.4762689E0,7.632862E1,1.4801714E0],"tree_param":{"num_deleted":"0","num_feature":"77","num_nodes":"13","size_leaf_vector":"1"}},{"base_weights":[5.259128E-3,-7.751133E-1,8.1243074E-1,-2.6982665E-1,-8.322412E-2,4.0525374E-1,8.222308E-1,-7.4055955E-2,6.709417E-2,1.1968352E-2,5.260281E-2,8.331595E-2,2.5549555E-2],"categories":[],"categories_nodes":[],"categories_segments":[],"categories_sizes":[],"default_left":[0,0,0,0,0,0,0,0,0,0,0,0,0],"id":5,"left_children":[1,3,5,7,-1,9,11,-1,-1,-1,-1,-1,-1],"loss_changes":[1.071973E2,2.2732506E0,5.874634E-4,5.044632E0,0E0,7.286048E-2,2.8704834E-1,0E0,0E0,0E0,0E0,0E0,0E0],"parents":[2147483647,0,0,1,1,2,2,3,3,5,5,6,6],"right_children":[2,4,6,8,-1,10,12,-1,-1,-1,-1,-1,-1],"split_conditions":[-7.593445E-1,-2.4266267E-1,-7.6307344E-1,6.2892765E-1,-8.322412E-2,-1.4077155E-1,-2.135228E-1,-7.4055955E-2,6.709417E-2,1.1968352E-2,5.260281E-2,8.331595E-2,2.5549555E-2],"split_indices":[38,1,15,0,0,2,17,0,0,0,0,0,0],"split_type":[0,0,0,0,0,0,0,0,0,0,0,0,0],"sum_hessian":[1.6818323E2,8.553135E1,8.265188E1,9.269287E0,7.626206E1,2.9379284E0,7.971395E1,6.3198395E0,2.9494483E0,1.464974E0,1.4729545E0,7.774465E1,1.9692993E0],"tree_param":{"num_deleted":"0","num_feature":"77","num_nodes":"13","size_leaf_vector":"1"}},{"base_weights":[-1.3237842E-2,7.8319296E-2,-7.418084E-1,4.8321664E-2,-7.6657957E-1,-7.850721E-2,-3.644004E-1,-6.48975E-2,2.898238E-2],"categories":[],"categories_nodes":[],"categories_segments":[],"categories_sizes":[],"default_left":[0,0,0,0,0,0,0,0,0],"id":6,"left_children":[1,-1,3,-1,5,-1,7,-1,-1],"loss_changes":[1.0179291E2,0E0,3.1502838E0,0E0,3.846054E-1,0E0,1.2735732E0,0E0,0E0],"parents":[2147483647,0,0,2,2,4,4,6,6],"right_children":[2,-1,4,-1,6,-1,8,-1,-1],"split_conditions":[-5.989315E-1,7.8319296E-2,6.2892765E-1,4.8321664E-2,-1.4077155E-1,-7.850721E-2,-5.7550234E-1,-6.48975E-2,2.898238E-2],"split_indices":[14,0,0,0,2,0,14,0,0],"split_type":[0,0,0,0,0,0,0,0,0],"sum_hessian":[1.7342633E2,8.281875E1,9.060759E1,1.4290421E0,8.917854E1,8.434811E1,4.8304358E0,3.3717952E0,1.4586406E0],"tree_param":{"num_deleted":"0","num_feature":"77","num_nodes":"9","size_leaf_vector":"1"}},{"base_weights":[2.3169194E-3,-7.258978E-1,7.502424E-1,-7.801037E-2,-2.698591E-1,1.0694762E-1,7.7213293E-1,-7.0159435E-2,6.416464E-2,-2.8723884E-2,4.660819E-2,7.827883E-2,1.236081E-2],"categories":[],"categories_nodes":[],"categories_segments":[],"categories_sizes":[],"default_left":[0,0,0,0,0,0,0,0,0,0,0,0,0],"id":7,"left_children":[1,3,5,-1,7,9,11,-1,-1,-1,-1,-1,-1],"loss_changes":[9.073969E1,1.8762131E0,1.0747833E0,0E0,4.5809307E0,6.810938E-1,4.5137405E-1,0E0,0E0,0E0,0E0,0E0,0E0],"parents":[2147483647,0,0,1,1,2,2,4,4,5,5,6,6],"right_children":[2,4,6,-1,8,10,12,-1,-1,-1,-1,-1,-1],"split_conditions":[-7.59425E-1,-7.3128116E-1,-6.4600676E-1,-7.801037E-2,6.2892765E-1,1.7563584E-1,-2.197028E-1,-7.0159435E-2,6.416464E-2,-2.8723884E-2,4.660819E-2,7.827883E-2,1.236081E-2],"split_indices":[7,15,52,0,0,68,18,0,0,0,0,0,0],"split_type":[0,0,0,0,0,0,0,0,0,0,0,0,0],"sum_hessian":[1.6460182E2,8.3414795E1,8.118703E1,7.39181E1,9.496697E0,2.8654585E0,7.832157E1,6.600606E0,2.8960915E0,1.4615022E0,1.4039564E0,7.685185E1,1.4697152E0],"tree_param":{"num_deleted":"0","num_feature":"77","num_nodes":"13","size_leaf_vector":"1"}},{"base_weights":[-1.5374754E-2,7.408942E-2,-6.961865E-1,4.5654636E-2,-7.2216606E-1,-3.355746E-1,-7.420855E-2,-5.9225213E-2,2.3169054E-2],"categories":[],"categories_nodes":[],"categories_segments":[],"categories_sizes":[],"default_left":[0,0,0,0,0,0,0,0,0],"id":8,"left_children":[1,-1,3,-1,5,7,-1,-1,-1],"loss_changes":[7.882138E1,0E0,2.7420158E0,0E0,3.6058807E-1,9.6783036E-1,0E0,0E0,0E0],"parents":[2147483647,0,0,2,2,4,4,5,5],"right_children":[2,-1,4,-1,6,8,-1,-1,-1],"split_conditions":[-5.989315E-1,7.408942E-2,6.2892765E-1,4.5654636E-2,-6.4600676E-1,-2.4266471E-1,-7.420855E-2,-5.9225213E-2,2.3169054E-2],"split_indices":[14,0,0,0,52,1,0,0,0],"split_type":[0,0,0,0,0,0,0,0,0],"sum_hessian":[1.5108606E2,7.153466E1,7.95514E1,1.3880806E0,7.816332E1,4.7045817E0,7.345874E1,3.2086675E0,1.4959145E0],"tree_param":{"num_deleted":"0","num_feature":"77","num_nodes":"9","size_leaf_vector":"1"}},{"base_weights":[-2.4245648E-2,-7.3953174E-2,6.8628323E-1,-5.0992917E-2,7.2108597E-1,7.4103445E-2,3.0634588E-1,-2.7692331E-2,6.0125906E-2],"categories":[],"categories_nodes":[],"categories_segments":[],"categories_sizes":[],"default_left":[0,0,0,0,0,0,0,0,0],"id":9,"left_children":[1,-1,3,-1,5,-1,7,-1,-1],"loss_changes":[8.114634E1,0E0,3.7030525E0,0E0,4.2050552E-1,0E0,1.0775658E0,0E0,0E0],"parents":[2147483647,0,0,2,2,4,4,6,6],"right_children":[2,-1,4,-1,6,-1,8,-1,-1],"split_conditions":[-5.989315E-1,-7.3953174E-2,6.2892765E-1,-5.0992917E-2,-2.135228E-1,7.4103445E-2,-1.14966094E-1,-2.7692331E-2,6.0125906E-2],"split_indices":[14,0,0,0,17,0,4,0,0],"split_type":[0,0,0,0,0,0,0,0,0],"sum_hessian":[1.5766554E2,7.854941E1,7.911613E1,1.8507743E0,7.726536E1,7.29689E1,4.296454E0,1.4633304E0,2.8331237E0],"tree_param":{"num_deleted":"0","num_feature":"77","num_nodes":"9","size_leaf_vector":"1"}},{"base_weights":[-1.8515673E-2,7.062059E-2,-6.667898E-1,4.8790168E-2,-7.001417E-2],"categories":[],"categories_nodes":[],"categories_segments":[],"categories_sizes":[],"default_left":[0,0,0,0,0],"id":10,"left_children":[1,-1,3,-1,-1],"loss_changes":[7.006328E1,0E0,3.3724747E0,0E0,0E0],"parents":[2147483647,0,0,2,2],"right_children":[2,-1,4,-1,-1],"split_conditions":[-5.989315E-1,7.062059E-2,6.2892765E-1,4.8790168E-2,-7.001417E-2],"split_indices":[14,0,0,0,0],"split_type":[0,0,0,0,0],"sum_hessian":[1.471262E2,6.9424965E1,7.770123E1,1.7986982E0,7.5902534E1],"tree_param":{"num_deleted":"0","num_feature":"77","num_nodes":"5","size_leaf_vector":"1"}},{"base_weights":[-1.1753233E-2,-7.069774E-2,6.6605794E-1,-4.8790164E-2,6.999462E-2],"categories":[],"categories_nodes":[],"categories_segments":[],"categories_sizes":[],"default_left":[0,0,0,0,0],"id":11,"left_children":[1,-1,3,-1,-1],"loss_changes":[7.206672E1,0E0,3.3700523E0,0E0,0E0],"parents":[2147483647,0,0,2,2],"right_children":[2,-1,4,-1,-1],"split_conditions":[-5.989315E-1,-7.069774E-2,6.2892765E-1,-4.8790164E-2,6.999462E-2],"split_indices":[14,0,0,0,0],"split_type":[0,0,0,0,0],"sum_hessian":[1.5093373E2,7.448855E1,7.644518E1,1.7986981E0,7.4646484E1],"tree_param":{"num_deleted":"0","num_feature":"77","num_nodes":"5","size_leaf_vector":"1"}},{"base_weights":[-1.2397277E-2,6.7619465E-2,-6.2543225E-1,4.6680763E-2,-6.57998E-1,-6.799814E-2,-2.2736713E-1,3.1622555E-2,-5.311212E-2],"categories":[],"categories_nodes":[],"categories_segments":[],"categories_sizes":[],"default_left":[0,0,0,0,0,0,0,0,0],"id":12,"left_children":[1,-1,3,-1,5,-1,7,-1,-1],"loss_changes":[5.940661E1,0E0,2.9549294E0,0E0,5.336151E-1,0E0,9.9904776E-1,0E0,0E0],"parents":[2147483647,0,0,2,2,4,4,6,6],"right_children":[2,-1,4,-1,6,-1,8,-1,-1],"split_conditions":[-5.989315E-1,6.7619465E-2,6.2892765E-1,4.6680763E-2,-2.135228E-1,-6.799814E-2,-5.1804822E-2,3.1622555E-2,-5.311212E-2],"split_indices":[14,0,0,0,17,0,2,0,0],"split_type":[0,0,0,0,0,0,0,0,0],"sum_hessian":[1.3872844E2,6.528924E1,7.34392E1,1.7401774E0,7.169903E1,6.766571E1,4.033318E0,1.4311322E0,2.6021857E0],"tree_param":{"num_deleted":"0","num_feature":"77","num_nodes":"9","size_leaf_vector":"1"}},{"base_weights":[-8.823011E-3,-6.7876026E-2,6.4667004E-1,-4.1618068E-2,6.7108296E-2],"categories":[],"categories_nodes":[],"categories_segments":[],"categories_sizes":[],"default_left":[0,0,0,0,0],"id":13,"left_children":[1,-1,3,-1,-1],"loss_changes":[6.5305504E1,0E0,2.2298431E0,0E0,0E0],"parents":[2147483647,0,0,2,2],"right_children":[2,-1,4,-1,-1],"split_conditions":[-5.989315E-1,-6.7876026E-2,-8.9391536E-1,-4.1618068E-2,6.7108296E-2],"split_indices":[14,0,7,0,0],"split_type":[0,0,0,0,0],"sum_hessian":[1.46713E2,7.253953E1,7.417347E1,1.3051331E0,7.286834E1],"tree_param":{"num_deleted":"0","num_feature":"77","num_nodes":"5","size_leaf_vector":"1"}},{"base_weights":[1.5503136E-2,6.5210186E-2,-5.95219E-1,4.486138E-2,-6.299554E-1,-6.5474495E-2,-1.6600946E-1,3.2787323E-2,-4.943218E-2],"categories":[],"categories_nodes":[],"categories_segments":[],"categories_sizes":[],"default_left":[0,0,0,0,0,0,0,0,0],"id":14,"left_children":[1,-1,3,-1,5,-1,7,-1,-1],"loss_changes":[4.963205E1,0E0,2.645504E0,0E0,6.214371E-1,0E0,9.0142125E-1,0E0,0E0],"parents":[2147483647,0,0,2,2,4,4,6,6],"right_children":[2,-1,4,-1,6,-1,8,-1,-1],"split_conditions":[-5.989315E-1,6.5210186E-2,6.2892765E-1,4.486138E-2,-1.4077155E-1,-6.5474495E-2,-2.7868935E-1,3.2787323E-2,-4.943218E-2],"split_indices":[14,0,0,0,2,0,6,0,0],"split_type":[0,0,0,0,0,0,0,0,0],"sum_hessian":[1.2566103E2,6.1493877E1,6.416716E1,1.6828414E0,6.2484318E1,5.8924614E1,3.5597062E0,1.4219675E0,2.1377387E0],"tree_param":{"num_deleted":"0","num_feature":"77","num_nodes":"9","size_leaf_vector":"1"}},{"base_weights":[1.1707565E-2,-6.540098E-2,6.1388427E-1,-4.4861384E-2,6.454717E-2],"categories":[],"categories_nodes":[],"categories_segments":[],"categories_sizes":[],"default_left":[0,0,0,0,0],"id":15,"left_children":[1,-1,3,-1,-1],"loss_changes":[5.5353683E1,0E0,2.7224617E0,0E0,0E0],"parents":[2147483647,0,0,2,2],"right_children":[2,-1,4,-1,-1],"split_conditions":[-5.989315E-1,-6.540098E-2,6.2892765E-1,-4.4861384E-2,6.454717E-2],"split_indices":[14,0,0,0,0],"split_type":[0,0,0,0,0],"sum_hessian":[1.3607909E2,6.4588844E1,7.1490234E1,1.6828414E0,6.9807396E1],"tree_param":{"num_deleted":"0","num_feature":"77","num_nodes":"5","size_leaf_vector":"1"}},{"base_weights":[-1.2724246E-2,5.75203E-1,-5.974945E-1,1.7028657E-1,6.3057266E-2,-1.2886436E-1,-6.238192E-1,5.522681E-2,-5.0268877E-2,-4.511472E-2,3.549765E-2,-6.338718E-2,-1.789528E-2],"categories":[],"categories_nodes":[],"categories_segments":[],"categories_sizes":[],"default_left":[0,0,0,0,0,0,0,0,0,0,0,0,0],"id":16,"left_children":[1,3,5,7,-1,9,11,-1,-1,-1,-1,-1,-1],"loss_changes":[4.2719883E1,1.2820435E0,6.879959E-1,2.5461717E0,0E0,8.7323976E-1,1.4912987E-1,0E0,0E0,0E0,0E0,0E0,0E0],"parents":[2147483647,0,0,1,1,2,2,3,3,5,5,6,6],"right_children":[2,4,6,8,-1,10,12,-1,-1,-1,-1,-1,-1],"split_conditions":[-7.626271E-1,-2.1977459E-1,-6.4600676E-1,6.2892765E-1,6.3057266E-2,-2.1587333E-1,-2.197028E-1,5.522681E-2,-5.0268877E-2,-4.511472E-2,3.549765E-2,-6.338718E-2,-1.789528E-2],"split_indices":[7,18,52,0,0,16,18,0,0,0,0,0,0],"split_type":[0,0,0,0,0,0,0,0,0,0,0,0,0],"sum_hessian":[1.2225745E2,6.0972317E1,6.128513E1,7.82485E0,5.314747E1,3.5730557E0,5.7712074E1,5.106027E0,2.7188232E0,2.1851287E0,1.3879268E0,5.6021317E1,1.690757E0],"tree_param":{"num_deleted":"0","num_feature":"77","num_nodes":"13","size_leaf_vector":"1"}},{"base_weights":[2.409645E-2,-6.329455E-2,5.865792E-1,-3.822911E-2,6.105541E-1,6.342884E-2,2.1714206E-1,-3.4124028E-2,5.1287062E-2],"categories":[],"categories_nodes":[],"categories_segments":[],"categories_sizes":[],"default_left":[0,0,0,0,0,0,0,0,0],"id":17,"left_children":[1,-1,3,-1,5,-1,7,-1,-1],"loss_changes":[4.549032E1,0E0,1.773323E0,0E0,4.6992874E-1,0E0,1.0375291E0,0E0,0E0],"parents":[2147483647,0,0,2,2,4,4,6,6],"right_children":[2,-1,4,-1,6,-1,8,-1,-1],"split_conditions":[-5.989315E-1,-6.329455E-2,6.2892765E-1,-3.822911E-2,-1.4077155E-1,6.342884E-2,-2.4265647E-1,-3.4124028E-2,5.1287062E-2],"split_indices":[14,0,0,0,2,0,1,0,0],"split_type":[0,0,0,0,0,0,0,0,0],"sum_hessian":[1.2108368E2,5.5789783E1,6.529389E1,1.2157964E0,6.4078094E1,5.9854824E1,4.2232723E0,1.4089864E0,2.8142858E0],"tree_param":{"num_deleted":"0","num_feature":"77","num_nodes":"9","size_leaf_vector":"1"}},{"base_weights":[2.74536E-3,6.159381E-2,-5.64904E-1,3.655113E-2,-5.904585E-1,-6.17388E-2,-1.9228935E-1,3.291537E-2,-4.8542667E-2],"categories":[],"categories_nodes":[],"categories_segments":[],"categories_sizes":[],"default_left":[0,0,0,0,0,0,0,0,0],"id":18,"left_children":[1,-1,3,-1,5,-1,7,-1,-1],"loss_changes":[3.880607E1,0E0,1.5923653E0,0E0,4.8957443E-1,0E0,9.311052E-1,0E0,0E0],"parents":[2147483647,0,0,2,2,4,4,6,6],"right_children":[2,-1,4,-1,6,-1,8,-1,-1],"split_conditions":[-5.989315E-1,6.159381E-2,6.2892765E-1,3.655113E-2,-2.135228E-1,-6.17388E-2,-2.4265647E-1,3.291537E-2,-4.8542667E-2],"split_indices":[14,0,0,0,17,0,1,0,0],"split_type":[0,0,0,0,0,0,0,0,0],"sum_hessian":[1.0948693E2,5.2591198E1,5.6895737E1,1.1652949E0,5.5730442E1,5.16843E1,4.046143E0,1.4118425E0,2.6343007E0],"tree_param":{"num_deleted":"0","num_feature":"77","num_nodes":"9","size_leaf_vector":"1"}},{"base_weights":[-7.5447867E-3,-6.1642196E-2,5.7102597E-1,-4.1322086E-2,6.045779E-1,6.1765082E-2,1.6626505E-2],"categories":[],"categories_nodes":[],"categories_segments":[],"categories_sizes":[],"default_left":[0,0,0,0,0,0,0],"id":19,"left_children":[1,-1,3,-1,5,-1,-1],"loss_changes":[4.0837612E1,0E0,2.213005E0,0E0,2.2904396E-1,0E0,0E0],"parents":[2147483647,0,0,2,2,4,4],"right_children":[2,-1,4,-1,6,-1,-1],"split_conditions":[-5.989315E-1,-6.1642196E-2,6.2892765E-1,-4.1322086E-2,-2.135228E-1,6.1765082E-2,1.6626505E-2],"split_indices":[14,0,0,0,17,0,0],"split_type":[0,0,0,0,0,0,0],"sum_hessian":[1.1392505E2,5.5476833E1,5.8448215E1,1.5537266E0,5.6894485E1,5.484942E1,2.0450685E0],"tree_param":{"num_deleted":"0","num_feature":"77","num_nodes":"7","size_leaf_vector":"1"}},{"base_weights":[-1.6879175E-2,6.0045995E-2,-5.4490536E-1,3.9901044E-2,-5.7633936E-1,-6.0154807E-2,-2.1864359E-1,3.392994E-2,-4.9951218E-2],"categories":[],"categories_nodes":[],"categories_segments":[],"categories_sizes":[],"default_left":[0,0,0,0,0,0,0,0,0],"id":20,"left_children":[1,-1,3,-1,5,-1,7,-1,-1],"loss_changes":[3.575773E1,0E0,1.9837666E0,0E0,3.8796806E-1,0E0,1.0100605E0,0E0,0E0],"parents":[2147483647,0,0,2,2,4,4,6,6],"right_children":[2,-1,4,-1,6,-1,8,-1,-1],"split_conditions":[-5.989315E-1,6.0045995E-2,6.2892765E-1,3.9901044E-2,-2.135228E-1,-6.0154807E-2,-1.14966094E-1,3.392994E-2,-4.9951218E-2],"split_indices":[14,0,0,0,17,0,4,0,0],"split_type":[0,0,0,0,0,0,0,0,0],"sum_hessian":[1.07692215E2,4.9584072E1,5.8108143E1,1.4958695E0,5.6612274E1,5.224833E1,4.3639445E0,1.3915688E0,2.9723756E0],"tree_param":{"num_deleted":"0","num_feature":"77","num_nodes":"9","size_leaf_vector":"1"}},{"base_weights":[5.3585726E-3,-6.011314E-2,5.6503105E-1,-3.5199955E-2,5.896866E-1,6.021027E-2,2.2167444E-2],"categories":[],"categories_nodes":[],"categories_segments":[],"categories_sizes":[],"default_left":[0,0,0,0,0,0,0],"id":21,"left_children":[1,-1,3,-1,5,-1,-1],"loss_changes":[3.7287807E1,0E0,1.4991875E0,0E0,1.22428894E-1,0E0,0E0],"parents":[2147483647,0,0,2,2,4,4],"right_children":[2,-1,4,-1,6,-1,-1],"split_conditions":[-5.989315E-1,-6.011314E-2,6.2892765E-1,-3.5199955E-2,-2.135228E-1,6.021027E-2,2.2167444E-2],"split_indices":[14,0,0,0,17,0,0],"split_type":[0,0,0,0,0,0,0],"sum_hessian":[1.0785167E2,5.172534E1,5.6126324E1,1.1219023E0,5.500442E1,5.2593895E1,2.410525E0],"tree_param":{"num_deleted":"0","num_feature":"77","num_nodes":"7","size_leaf_vector":"1"}},{"base_weights":[-4.8741284E-3,5.878851E-2,-5.5327386E-1,-1.8012258E-1,-5.9051372E-2,-3.994606E-2,3.6247846E-2],"categories":[],"categories_nodes":[],"categories_segments":[],"categories_sizes":[],"default_left":[0,0,0,0,0,0,0],"id":22,"left_children":[1,-1,3,5,-1,-1,-1],"loss_changes":[3.3763493E1,0E0,6.4328957E-1,8.9864624E-1,0E0,0E0,0E0],"parents":[2147483647,0,0,2,2,3,3],"right_children":[2,-1,4,6,-1,-1,-1],"split_conditions":[-5.989315E-1,5.878851E-2,-6.4600676E-1,-2.4266471E-1,-5.9051372E-2,-3.994606E-2,3.6247846E-2],"split_indices":[14,0,52,1,0,0,0],"split_type":[0,0,0,0,0,0,0],"sum_hessian":[1.0186504E2,4.8918056E1,5.294699E1,5.3341837E0,4.7612804E1,3.986505E0,1.3476785E0],"tree_param":{"num_deleted":"0","num_feature":"77","num_nodes":"7","size_leaf_vector":"1"}},{"base_weights":[-2.416059E-2,-5.8808096E-2,5.3265864E-1,-3.393409E-2,5.5822057E-1,5.883756E-2,4.5665447E-2,-3.3544105E-2,3.96259E-2],"categories":[],"categories_nodes":[],"categories_segments":[],"categories_sizes":[],"default_left":[0,0,0,0,0,0,0,0,0],"id":23,"left_children":[1,-1,3,-1,5,-1,7,-1,-1],"loss_changes":[3.1919436E1,0E0,1.3300428E0,0E0,7.4736404E-1,0E0,6.49667E-1,0E0,0E0],"parents":[2147483647,0,0,2,2,4,4,6,6],"right_children":[2,-1,4,-1,6,-1,8,-1,-1],"split_conditions":[-5.989315E-1,-5.8808096E-2,6.2892765E-1,-3.393409E-2,-1.4077155E-1,5.883756E-2,-1.14966094E-1,-3.3544105E-2,3.96259E-2],"split_indices":[14,0,0,0,2,0,4,0,0],"split_type":[0,0,0,0,0,0,0,0,0],"sum_hessian":[9.965611E1,4.9484447E1,5.0171665E1,1.0792637E0,4.90924E1,4.6224937E1,2.867465E0,1.3946525E0,1.4728124E0],"tree_param":{"num_deleted":"0","num_feature":"77","num_nodes":"9","size_leaf_vector":"1"}},{"base_weights":[1.2983735E-2,5.758403E-2,-5.17871E-1,3.4034144E-2,-5.450026E-1,-5.7678044E-2,-6.627363E-2,3.2474276E-2,-3.9406594E-2],"categories":[],"categories_nodes":[],"categories_segments":[],"categories_sizes":[],"default_left":[0,0,0,0,0,0,0,0,0],"id":24,"left_children":[1,-1,3,-1,5,-1,7,-1,-1],"loss_changes":[2.7788397E1,0E0,1.3002214E0,0E0,6.7361355E-1,0E0,6.4610416E-1,0E0,0E0],"parents":[2147483647,0,0,2,2,4,4,6,6],"right_children":[2,-1,4,-1,6,-1,8,-1,-1],"split_conditions":[-5.989315E-1,5.758403E-2,-8.9391536E-1,3.4034144E-2,-2.135228E-1,-5.7678044E-2,-2.4265647E-1,3.2474276E-2,-3.9406594E-2],"split_indices":[14,0,7,0,17,0,1,0,0],"split_type":[0,0,0,0,0,0,0,0,0],"sum_hessian":[9.100348E1,4.4129234E1,4.687424E1,1.0826986E0,4.5791542E1,4.2749058E1,3.0424857E0,1.3916818E0,1.6508038E0],"tree_param":{"num_deleted":"0","num_feature":"77","num_nodes":"9","size_leaf_vector":"1"}},{"base_weights":[-1.1857977E-2,-5.7598174E-2,5.182981E-1,4.3851074E-2,5.7693005E-2,-2.0451054E-1,4.130277E-2,-5.6973465E-2,3.5024475E-2],"categories":[],"categories_nodes":[],"categories_segments":[],"categories_sizes":[],"default_left":[0,0,0,0,0,0,0,0,0],"id":25,"left_children":[1,-1,3,5,-1,7,-1,-1,-1],"loss_changes":[2.7887001E1,0E0,1.3122139E0,6.685839E-1,0E0,1.106692E0,0E0,0E0,0E0],"parents":[2147483647,0,0,2,2,3,3,5,5],"right_children":[2,-1,4,6,-1,8,-1,-1,-1],"split_conditions":[-5.989315E-1,-5.7598174E-2,-6.4600676E-1,-5.207148E-2,5.7693005E-2,-5.2484775E-1,4.130277E-2,-5.6973465E-2,3.5024475E-2],"split_indices":[14,0,52,19,0,14,0,0,0],"split_type":[0,0,0,0,0,0,0,0,0],"sum_hessian":[9.124643E1,4.416514E1,4.7081287E1,5.3705955E0,4.1710693E1,3.4772978E0,1.8932977E0,2.0805576E0,1.3967403E0],"tree_param":{"num_deleted":"0","num_feature":"77","num_nodes":"9","size_leaf_vector":"1"}},{"base_weights":[-7.0277764E-3,5.6453537E-2,-5.0631297E-1,-4.6531077E-2,-5.67284E-2,1.7806032E-1,-3.833556E-2,4.476025E-2,-3.2317054E-2],"categories":[],"categories_nodes":[],"categories_segments":[],"categories_sizes":[],"default_left":[0,0,0,0,0,0,0,0,0],"id":26,"left_children":[1,-1,3,5,-1,7,-1,-1,-1],"loss_changes":[2.3790024E1,0E0,1.2207603E0,5.4470223E-1,0E0,7.4740607E-1,0E0,0E0,0E0],"parents":[2147483647,0,0,2,2,3,3,5,5],"right_children":[2,-1,4,6,-1,8,-1,-1,-1],"split_conditions":[-5.989315E-1,5.6453537E-2,-6.4600676E-1,-5.2484775E-1,-5.67284E-2,-5.207148E-2,-3.833556E-2,4.476025E-2,-3.2317054E-2],"split_indices":[14,0,52,14,0,19,0,0,0],"split_type":[0,0,0,0,0,0,0,0,0],"sum_hessian":[8.1363045E1,3.7874752E1,4.3488297E1,5.298151E0,3.8190147E1,3.461447E0,1.836704E0,2.3205438E0,1.1409034E0],"tree_param":{"num_deleted":"0","num_feature":"77","num_nodes":"9","size_leaf_vector":"1"}},{"base_weights":[-1.2667929E-2,-5.6586027E-2,4.9998742E-1,-3.7544675E-2,5.3533065E-1,5.6691118E-2,9.9482514E-2,-3.1433225E-2,4.0648397E-2],"categories":[],"categories_nodes":[],"categories_segments":[],"categories_sizes":[],"default_left":[0,0,0,0,0,0,0,0,0],"id":27,"left_children":[1,-1,3,-1,5,-1,7,-1,-1],"loss_changes":[2.540789E1,0E0,1.6401186E0,0E0,5.646467E-1,0E0,6.6912436E-1,0E0,0E0],"parents":[2147483647,0,0,2,2,4,4,6,6],"right_children":[2,-1,4,-1,6,-1,8,-1,-1],"split_conditions":[-5.989315E-1,-5.6586027E-2,-2.49989E-1,-3.7544675E-2,-2.135228E-1,5.6691118E-2,-5.1804822E-2,-3.1433225E-2,4.0648397E-2],"split_indices":[14,0,4,0,17,0,2,0,0],"split_type":[0,0,0,0,0,0,0,0,0],"sum_hessian":[8.7593895E1,4.2081314E1,4.551258E1,1.3927207E0,4.411986E1,4.0858635E1,3.2612243E0,1.3788117E0,1.8824127E0],"tree_param":{"num_deleted":"0","num_feature":"77","num_nodes":"9","size_leaf_vector":"1"}},{"base_weights":[-2.5666049E-2,5.547275E-2,-5.236938E-1,-2.251262E-1,-5.5880945E-2,3.5638944E-3,-4.0751107E-2,2.429813E-2,-1.9624086E-2],"categories":[],"categories_nodes":[],"categories_segments":[],"categories_sizes":[],"default_left":[0,0,0,0,0,0,0,0,0],"id":28,"left_children":[1,-1,3,5,-1,7,-1,-1,-1],"loss_changes":[2.2243292E1,0E0,3.081293E-1,2.529713E-1,0E0,2.2309129E-1,0E0,0E0,0E0],"parents":[2147483647,0,0,2,2,3,3,5,5],"right_children":[2,-1,4,6,-1,8,-1,-1,-1],"split_conditions":[-5.989315E-1,5.547275E-2,-6.026702E-1,-5.2484775E-1,-5.5880945E-2,-5.207148E-2,-4.0751107E-2,2.429813E-2,-1.9624086E-2],"split_indices":[14,0,6,14,0,19,0,0,0],"split_type":[0,0,0,0,0,0,0,0,0],"sum_hessian":[7.49475E1,3.455907E1,4.038843E1,5.03024E0,3.5358192E1,2.6668143E0,2.3634257E0,1.1148473E0,1.551967E0],"tree_param":{"num_deleted":"0","num_feature":"77","num_nodes":"9","size_leaf_vector":"1"}},{"base_weights":[-3.3893911E-3,-5.557654E-2,5.044193E-1,2.7838655E-2,5.5834472E-2,2.3344466E-1,-3.3238593E-2,-5.2895793E-3,3.7363984E-2],"categories":[],"categories_nodes":[],"categories_segments":[],"categories_sizes":[],"default_left":[0,0,0,0,0,0,0,0,0],"id":29,"left_children":[1,-1,3,5,-1,7,-1,-1,-1],"loss_changes":[2.211604E1,0E0,1.0402832E0,4.6484098E-1,0E0,1.7696871E-1,0E0,0E0,0E0],"parents":[2147483647,0,0,2,2,3,3,5,5],"right_children":[2,-1,4,6,-1,8,-1,-1,-1],"split_conditions":[-5.989315E-1,-5.557654E-2,-6.4600676E-1,-2.4266471E-1,5.5834472E-2,-5.401148E-1,-3.3238593E-2,-5.2895793E-3,3.7363984E-2],"split_indices":[14,0,52,1,0,14,0,0,0],"split_type":[0,0,0,0,0,0,0,0,0],"sum_hessian":[7.684526E1,3.6762215E1,4.0083046E1,4.228525E0,3.585452E1,2.9160647E0,1.3124604E0,1.1631328E0,1.7529321E0],"tree_param":{"num_deleted":"0","num_feature":"77","num_nodes":"9","size_leaf_vector":"1"}},{"base_weights":[-1.1733088E-3,5.4660182E-2,-4.7383064E-1,3.4640625E-2,-5.490541E-2,3.1191338E-2,-2.8313784E-2],"categories":[],"categories_nodes":[],"categories_segments":[],"categories_sizes":[],"default_left":[0,0,0,0,0,0,0],"id":30,"left_children":[1,-1,3,5,-1,-1,-1],"loss_changes":[1.875684E1,0E0,1.5064402E0,6.127806E-1,0E0,0E0,0E0],"parents":[2147483647,0,0,2,2,3,3],"right_children":[2,-1,4,6,-1,-1,-1],"split_conditions":[-5.989315E-1,5.4660182E-2,-6.4600676E-1,-5.207148E-2,-5.490541E-2,3.1191338E-2,-2.8313784E-2],"split_indices":[14,0,52,19,0,0,0],"split_type":[0,0,0,0,0,0,0],"sum_hessian":[7.044508E1,3.2557217E1,3.7887867E1,4.952313E0,3.2935555E1,2.6545672E0,2.2977457E0],"tree_param":{"num_deleted":"0","num_feature":"77","num_nodes":"7","size_leaf_vector":"1"}},{"base_weights":[1.8451178E-2,-5.4686286E-2,5.037264E-1,-3.199891E-2,5.3358036E-1,5.4920055E-2,2.2647569E-1,-3.8015302E-3,3.6260597E-2],"categories":[],"categories_nodes":[],"categories_segments":[],"categories_sizes":[],"default_left":[0,0,0,0,0,0,0,0,0],"id":31,"left_children":[1,-1,3,-1,5,-1,7,-1,-1],"loss_changes":[2.0166824E1,0E0,1.142992E0,0E0,6.0441017E-2,0E0,1.4220007E-1,0E0,0E0],"parents":[2147483647,0,0,2,2,4,4,6,6],"right_children":[2,-1,4,-1,6,-1,8,-1,-1],"split_conditions":[-5.989315E-1,-5.4686286E-2,6.2892765E-1,-3.199891E-2,-1.4077155E-1,5.4920055E-2,6.8210185E-2,-3.8015302E-3,3.6260597E-2],"split_indices":[14,0,0,0,2,0,34,0,0],"split_type":[0,0,0,0,0,0,0,0,0],"sum_hessian":[7.1508095E1,3.2971516E1,3.853658E1,1.0079266E0,3.7528652E1,3.4962074E1,2.5665789E0,1.1170253E0,1.4495536E0],"tree_param":{"num_deleted":"0","num_feature":"77","num_nodes":"9","size_leaf_vector":"1"}},{"base_weights":[9.081499E-3,5.3985346E-2,-4.6365649E-1,1.7436925E-2,-5.415907E-2,2.2400224E-1,-3.514451E-2,4.1304633E-2,-1.3477844E-2],"categories":[],"categories_nodes":[],"categories_segments":[],"categories_sizes":[],"default_left":[0,0,0,0,0,0,0,0,0],"id":32,"left_children":[1,-1,3,5,-1,7,-1,-1,-1],"loss_changes":[1.7429771E1,0E0,1.3873796E0,5.429474E-1,0E0,3.6197692E-1,0E0,0E0,0E0],"parents":[2147483647,0,0,2,2,3,3,5,5],"right_children":[2,-1,4,6,-1,8,-1,-1,-1],"split_conditions":[-5.989315E-1,5.3985346E-2,-6.4600676E-1,-5.2484775E-1,-5.415907E-2,-5.0026104E-2,-3.514451E-2,4.1304633E-2,-1.3477844E-2],"split_indices":[14,0,52,14,0,24,0,0,0],"split_type":[0,0,0,0,0,0,0,0,0],"sum_hessian":[6.746699E1,3.1715773E1,3.5751217E1,5.092305E0,3.065891E1,3.5161161E0,1.5761892E0,2.2037137E0,1.3124025E0],"tree_param":{"num_deleted":"0","num_feature":"77","num_nodes":"9","size_leaf_vector":"1"}},{"base_weights":[-1.306663E-2,-5.3960305E-2,4.7815183E-1,-3.548148E-2,5.2124035E-1,2.1165399E-1,5.4066896E-2,-2.571335E-3,3.3973083E-2],"categories":[],"categories_nodes":[],"categories_segments":[],"categories_sizes":[],"default_left":[0,0,0,0,0,0,0,0,0],"id":33,"left_children":[1,-1,3,-1,5,7,-1,-1,-1],"loss_changes":[1.725097E1,0E0,1.4239182E0,0E0,8.542156E-2,1.1834425E-1,0E0,0E0,0E0],"parents":[2147483647,0,0,2,2,4,4,5,5],"right_children":[2,-1,4,-1,6,8,-1,-1,-1],"split_conditions":[-5.989315E-1,-5.3960305E-2,6.2892765E-1,-3.548148E-2,-6.4600676E-1,1.7563584E-1,5.4066896E-2,-2.571335E-3,3.3973083E-2],"split_indices":[14,0,0,0,52,68,0,0,0],"split_type":[0,0,0,0,0,0,0,0,0],"sum_hessian":[6.470008E1,3.1179892E1,3.3520187E1,1.2928512E0,3.2227333E1,2.6053987E0,2.9621937E1,1.1932185E0,1.4121802E0],"tree_param":{"num_deleted":"0","num_feature":"77","num_nodes":"9","size_leaf_vector":"1"}},{"base_weights":[2.2326326E-2,5.3125568E-2,-4.5527554E-1,-5.851284E-2,-5.3167667E-2,1.5902799E-2,-2.8273535E-1,-8.0845235E-3,-3.4002014E-2],"categories":[],"categories_nodes":[],"categories_segments":[],"categories_sizes":[],"default_left":[0,0,0,0,0,0,0,0,0],"id":34,"left_children":[1,-1,3,5,-1,-1,7,-1,-1],"loss_changes":[1.4452463E1,0E0,8.9946604E-1,3.4155744E-1,0E0,0E0,1.1303991E-2,0E0,0E0],"parents":[2147483647,0,0,2,2,3,3,6,6],"right_children":[2,-1,4,6,-1,-1,8,-1,-1],"split_conditions":[-5.989315E-1,5.3125568E-2,-6.4600676E-1,-5.207148E-2,-5.3167667E-2,1.5902799E-2,-8.5835606E-1,-8.0845235E-3,-3.4002014E-2],"split_indices":[14,0,52,19,0,0,52,0,0],"split_type":[0,0,0,0,0,0,0,0,0],"sum_hessian":[5.7464043E1,2.7765245E1,2.9698797E1,5.080556E0,2.4618242E1,2.7262776E0,2.354278E0,1.0533208E0,1.3009574E0],"tree_param":{"num_deleted":"0","num_feature":"77","num_nodes":"9","size_leaf_vector":"1"}},{"base_weights":[4.8012487E-3,-5.3151704E-2,4.52587E-1,-3.451049E-2,4.9390793E-1,5.358369E-2,-8.152686E-3],"categories":[],"categories_nodes":[],"categories_segments":[],"categories_sizes":[],"default_left":[0,0,0,0,0,0,0],"id":35,"left_children":[1,-1,3,-1,5,-1,-1],"loss_changes":[1.4821677E1,0E0,1.2789001E0,0E0,8.250241E-1,0E0,0E0],"parents":[2147483647,0,0,2,2,4,4],"right_children":[2,-1,4,-1,6,-1,-1],"split_conditions":[-5.989315E-1,-5.3151704E-2,6.2892765E-1,-3.451049E-2,-2.135228E-1,5.358369E-2,-8.152686E-3],"split_indices":[14,0,0,0,17,0,0],"split_type":[0,0,0,0,0,0,0],"sum_hessian":[5.9715275E1,2.7086483E1,3.2628788E1,1.2448765E0,3.1383913E1,2.9316582E1,2.0673323E0],"tree_param":{"num_deleted":"0","num_feature":"77","num_nodes":"7","size_leaf_vector":"1"}},{"base_weights":[1.4802338E-2,4.5753267E-1,-5.164731E-1,4.92284E-1,-2.8589878E-2,-5.267641E-2,-1.327395E-2,1.9972177E-1,5.3758807E-2,4.4200733E-2,-3.4288432E-2],"categories":[],"categories_nodes":[],"categories_segments":[],"categories_sizes":[],"default_left":[0,0,0,0,0,0,0,0,0,0,0],"id":36,"left_children":[1,3,5,7,-1,-1,-1,9,-1,-1,-1],"loss_changes":[1.3785576E1,9.6620226E-1,3.5333157E-2,3.0207586E-1,0E0,0E0,0E0,9.0529215E-1,0E0,0E0,0E0],"parents":[2147483647,0,0,1,1,2,2,3,3,7,7],"right_children":[2,4,6,8,-1,-1,-1,10,-1,-1,-1],"split_conditions":[-5.384765E-1,-5.2484775E-1,-2.4177027E-1,-2.1352357E-1,-2.8589878E-2,-5.267641E-2,-1.327395E-2,-8.9391536E-1,5.3758807E-2,4.4200733E-2,-3.4288432E-2],"split_indices":[7,14,1,17,0,0,0,7,0,0,0],"split_type":[0,0,0,0,0,0,0,0,0,0,0],"sum_hessian":[5.6604576E1,3.0950907E1,2.5653667E1,2.9891468E1,1.0594393E0,2.4620655E1,1.0330124E0,4.733322E0,2.5158146E1,3.4003778E0,1.3329444E0],"tree_param":{"num_deleted":"0","num_feature":"77","num_nodes":"11","size_leaf_vector":"1"}},{"base_weights":[4.175465E-3,-5.2550804E-2,4.87707E-1,1.2377145E-1,5.2852776E-2,-5.143345E-3,3.1251073E-2],"categories":[],"categories_nodes":[],"categories_segments":[],"categories_sizes":[],"default_left":[0,0,0,0,0,0,0],"id":37,"left_children":[1,-1,3,5,-1,-1,-1],"loss_changes":[1.4761867E1,0E0,3.8214827E-1,1.5972579E-1,0E0,0E0,0E0],"parents":[2147483647,0,0,2,2,3,3],"right_children":[2,-1,4,6,-1,-1,-1],"split_conditions":[-5.989315E-1,-5.2550804E-2,-6.4600676E-1,-5.2484775E-1,5.2852776E-2,-5.143345E-3,3.1251073E-2],"split_indices":[14,0,52,14,0,0,0],"split_type":[0,0,0,0,0,0,0],"sum_hessian":[5.563614E1,2.6509527E1,2.9126614E1,3.3441415E0,2.578247E1,2.1115236E0,1.2326179E0],"tree_param":{"num_deleted":"0","num_feature":"77","num_nodes":"7","size_leaf_vector":"1"}},{"base_weights":[1.7240893E-2,5.205012E-2,-4.5310733E-1,3.3048566E-2,-5.003122E-1,-5.2325156E-2,-1.2698407E-2],"categories":[],"categories_nodes":[],"categories_segments":[],"categories_sizes":[],"default_left":[0,0,0,0,0,0,0],"id":38,"left_children":[1,-1,3,-1,5,-1,-1],"loss_changes":[1.2662229E1,0E0,1.1888533E0,0E0,1.6046381E-1,0E0,0E0],"parents":[2147483647,0,0,2,2,4,4],"right_children":[2,-1,4,-1,6,-1,-1],"split_conditions":[-5.989315E-1,5.205012E-2,-2.49989E-1,3.3048566E-2,-1.4077155E-1,-5.2325156E-2,-1.2698407E-2],"split_indices":[14,0,4,0,2,0,0],"split_type":[0,0,0,0,0,0,0],"sum_hessian":[5.1496784E1,2.4826475E1,2.6670307E1,1.174398E0,2.549591E1,2.364165E1,1.8542609E0],"tree_param":{"num_deleted":"0","num_feature":"77","num_nodes":"7","size_leaf_vector":"1"}},{"base_weights":[-1.0934614E-2,-5.2046176E-2,4.3494502E-1,-3.715532E-2,5.222252E-2,-2.0241205E-1,3.0684207E-2,-3.869396E-2,1.3763576E-2],"categories":[],"categories_nodes":[],"categories_segments":[],"categories_sizes":[],"default_left":[0,0,0,0,0,0,0,0,0],"id":39,"left_children":[1,-1,3,5,-1,7,-1,-1,-1],"loss_changes":[1.2570379E1,0E0,1.2358379E0,3.7703586E-1,0E0,3.2587528E-1,0E0,0E0,0E0],"parents":[2147483647,0,0,2,2,3,3,5,5],"right_children":[2,-1,4,6,-1,8,-1,-1,-1],"split_conditions":[-5.989315E-1,-5.2046176E-2,-6.4600676E-1,-5.2484775E-1,5.222252E-2,-5.207148E-2,3.0684207E-2,-3.869396E-2,1.3763576E-2],"split_indices":[14,0,52,14,0,19,0,0,0],"split_type":[0,0,0,0,0,0,0,0,0],"sum_hessian":[5.3333942E1,2.48124E1,2.852154E1,4.5398245E0,2.3981716E1,3.3446429E0,1.1951818E0,2.0787225E0,1.2659203E0],"tree_param":{"num_deleted":"0","num_feature":"77","num_nodes":"9","size_leaf_vector":"1"}},{"base_weights":[-1.0502209E-2,4.1448995E-1,-5.034275E-1,-2.5636863E-2,5.260995E-2,-1.279138E-2,-5.154044E-2,3.8875338E-2,-4.1354645E-2],"categories":[],"categories_nodes":[],"categories_segments":[],"categories_sizes":[],"default_left":[0,0,0,0,0,0,0,0,0],"id":40,"left_children":[1,3,5,7,-1,-1,-1,-1,-1],"loss_changes":[1.0079373E1,1.2833476E0,3.421879E-2,1.1546386E0,0E0,0E0,0E0,0E0,0E0],"parents":[2147483647,0,0,1,1,2,2,3,3],"right_children":[2,4,6,8,-1,-1,-1,-1,-1],"split_conditions":[-5.384765E-1,-2.1352357E-1,-1.950678E-1,6.2892765E-1,5.260995E-2,-1.279138E-2,-5.154044E-2,3.8875338E-2,-4.1354645E-2],"split_indices":[7,17,4,0,0,0,0,0,0],"split_type":[0,0,0,0,0,0,0,0,0],"sum_hessian":[4.6117943E1,2.4850964E1,2.1266977E1,5.182869E0,1.9668097E1,1.0183553E0,2.0248621E1,2.5048501E0,2.6780188E0],"tree_param":{"num_deleted":"0","num_feature":"77","num_nodes":"9","size_leaf_vector":"1"}},{"base_weights":[-9.255982E-3,-5.148719E-2,4.4831404E-1,6.5615006E-2,5.1524725E-2,-2.0297104E-2,3.677376E-2],"categories":[],"categories_nodes":[],"categories_segments":[],"categories_sizes":[],"default_left":[0,0,0,0,0,0,0],"id":41,"left_children":[1,-1,3,5,-1,-1,-1],"loss_changes":[1.1665169E1,0E0,6.4445734E-1,4.874814E-1,0E0,0E0,0E0],"parents":[2147483647,0,0,2,2,3,3],"right_children":[2,-1,4,6,-1,-1,-1],"split_conditions":[-5.989315E-1,-5.148719E-2,-6.4600676E-1,-5.207148E-2,5.1524725E-2,-2.0297104E-2,3.677376E-2],"split_indices":[14,0,52,19,0,0,0],"split_type":[0,0,0,0,0,0,0],"sum_hessian":[4.8423447E1,2.2944496E1,2.5478949E1,4.0876412E0,2.1391308E1,2.3376555E0,1.7499855E0],"tree_param":{"num_deleted":"0","num_feature":"77","num_nodes":"7","size_leaf_vector":"1"}},{"base_weights":[-1.0468325E-2,5.0856527E-2,-4.4007754E-1,-1.0692786E-1,-5.1058587E-2,-2.7885276E-1,2.6319284E-2,-3.1851043E-3,-3.7689783E-2],"categories":[],"categories_nodes":[],"categories_segments":[],"categories_sizes":[],"default_left":[0,0,0,0,0,0,0,0,0],"id":42,"left_children":[1,-1,3,5,-1,7,-1,-1,-1],"loss_changes":[1.0383423E1,0E0,5.435691E-1,4.369229E-1,0E0,9.422389E-2,0E0,0E0,0E0],"parents":[2147483647,0,0,2,2,3,3,5,5],"right_children":[2,-1,4,6,-1,8,-1,-1,-1],"split_conditions":[-5.989315E-1,5.0856527E-2,-6.026702E-1,-6.1692923E-1,-5.1058587E-2,-5.655655E-1,2.6319284E-2,-3.1851043E-3,-3.7689783E-2],"split_indices":[14,0,6,7,0,14,0,0,0],"split_type":[0,0,0,0,0,0,0,0,0],"sum_hessian":[4.4562565E1,2.0097694E1,2.4464872E1,4.712932E0,1.975194E1,3.3864708E0,1.3264613E0,1.3387251E0,2.0477455E0],"tree_param":{"num_deleted":"0","num_feature":"77","num_nodes":"9","size_leaf_vector":"1"}},{"base_weights":[4.2862955E-2,-5.0613225E-2,4.4687247E-1,9.79383E-2,5.1187433E-2,-1.1547226E-2,3.5635732E-2],"categories":[],"categories_nodes":[],"categories_segments":[],"categories_sizes":[],"default_left":[0,0,0,0,0,0,0],"id":43,"left_children":[1,-1,3,5,-1,-1,-1],"loss_changes":[1.0035825E1,0E0,5.397911E-1,3.3459437E-1,0E0,0E0,0E0],"parents":[2147483647,0,0,2,2,3,3],"right_children":[2,-1,4,6,-1,-1,-1],"split_conditions":[-5.989315E-1,-5.0613225E-2,-6.4600676E-1,-5.207148E-2,5.1187433E-2,-1.1547226E-2,3.5635732E-2],"split_indices":[14,0,52,19,0,0,0],"split_type":[0,0,0,0,0,0,0],"sum_hessian":[4.322759E1,1.8218412E1,2.5009174E1,4.3209147E0,2.068826E1,2.669509E0,1.6514058E0],"tree_param":{"num_deleted":"0","num_feature":"77","num_nodes":"7","size_leaf_vector":"1"}},{"base_weights":[-1.9305622E-2,5.0269652E-2,-4.479454E-1,-1.1116534E-1,-5.057318E-2,8.994854E-3,-3.275528E-2],"categories":[],"categories_nodes":[],"categories_segments":[],"categories_sizes":[],"default_left":[0,0,0,0,0,0,0],"id":44,"left_children":[1,-1,3,5,-1,-1,-1],"loss_changes":[9.438545E0,0E0,3.940997E-1,2.3272082E-1,0E0,0E0,0E0],"parents":[2147483647,0,0,2,2,3,3],"right_children":[2,-1,4,6,-1,-1,-1],"split_conditions":[-5.989315E-1,5.0269652E-2,-6.026702E-1,-5.2484775E-1,-5.057318E-2,8.994854E-3,-3.275528E-2],"split_indices":[14,0,6,14,0,0,0],"split_type":[0,0,0,0,0,0,0],"sum_hessian":[4.0176888E1,1.8037659E1,2.2139227E1,3.6706078E0,1.846862E1,2.205292E0,1.4653157E0],"tree_param":{"num_deleted":"0","num_feature":"77","num_nodes":"7","size_leaf_vector":"1"}},{"base_weights":[5.213056E-3,-5.034987E-2,4.3201518E-1,-3.1707477E-2,4.8340997E-1,5.0768342E-2,1.8207012E-1,-3.7397514E-4,2.8702995E-2],"categories":[],"categories_nodes":[],"categories_segments":[],"categories_sizes":[],"default_left":[0,0,0,0,0,0,0,0,0],"id":45,"left_children":[1,-1,3,-1,5,-1,7,-1,-1],"loss_changes":[9.31923E0,0E0,1.0516028E0,0E0,7.017994E-2,0E0,6.380251E-2,0E0,0E0],"parents":[2147483647,0,0,2,2,4,4,6,6],"right_children":[2,-1,4,-1,6,-1,8,-1,-1],"split_conditions":[-5.989315E-1,-5.034987E-2,-2.49989E-1,-3.1707477E-2,-2.135228E-1,5.0768342E-2,-5.1804822E-2,-3.7397514E-4,2.8702995E-2],"split_indices":[14,0,4,0,17,0,2,0,0],"split_type":[0,0,0,0,0,0,0,0,0],"sum_hessian":[4.0920334E1,1.8586779E1,2.2333555E1,1.1020179E0,2.1231539E1,1.9015085E1,2.2164526E0,1.148189E0,1.0682638E0],"tree_param":{"num_deleted":"0","num_feature":"77","num_nodes":"9","size_leaf_vector":"1"}},{"base_weights":[1.1319569E-2,4.9925245E-2,-4.110309E-1,-8.716915E-2,-4.9772754E-2,-2.6176175E-1,3.516114E-2,6.456455E-4,-3.823153E-2],"categories":[],"categories_nodes":[],"categories_segments":[],"categories_sizes":[],"default_left":[0,0,0,0,0,0,0,0,0],"id":46,"left_children":[1,-1,3,5,-1,7,-1,-1,-1],"loss_changes":[8.257293E0,0E0,5.6007147E-1,5.3259647E-1,0E0,1.5402511E-1,0E0,0E0,0E0],"parents":[2147483647,0,0,2,2,3,3,5,5],"right_children":[2,-1,4,6,-1,8,-1,-1,-1],"split_conditions":[-5.989315E-1,4.9925245E-2,-6.026702E-1,-5.912388E-1,-4.9772754E-2,-5.655655E-1,3.516114E-2,6.456455E-4,-3.823153E-2],"split_indices":[14,0,6,38,0,14,0,0,0],"split_type":[0,0,0,0,0,0,0,0,0],"sum_hessian":[3.807287E1,1.758045E1,2.0492418E1,4.7508216E0,1.5741596E1,3.6871305E0,1.063691E0,1.4368167E0,2.2503138E0],"tree_param":{"num_deleted":"0","num_feature":"77","num_nodes":"9","size_leaf_vector":"1"}},{"base_weights":[-1.244829E-2,-4.975738E-2,4.0991098E-1,3.8727168E-2,4.970752E-2,-1.1698503E-1,2.9393602E-2,8.002385E-3,-2.9555524E-2],"categories":[],"categories_nodes":[],"categories_segments":[],"categories_sizes":[],"default_left":[0,0,0,0,0,0,0,0,0],"id":47,"left_children":[1,-1,3,5,-1,7,-1,-1,-1],"loss_changes":[7.7162957E0,0E0,6.3262343E-1,2.2974694E-1,0E0,1.5622762E-1,0E0,0E0,0E0],"parents":[2147483647,0,0,2,2,3,3,5,5],"right_children":[2,-1,4,6,-1,8,-1,-1,-1],"split_conditions":[-5.989315E-1,-4.975738E-2,-6.4600676E-1,-5.2484775E-1,4.970752E-2,-2.4622186E-1,2.9393602E-2,8.002385E-3,-2.9555524E-2],"split_indices":[14,0,52,14,0,4,0,0,0],"split_type":[0,0,0,0,0,0,0,0,0],"sum_hessian":[3.5663914E1,1.6515726E1,1.9148188E1,3.916082E0,1.5232106E1,2.7685187E0,1.1475632E0,1.5786855E0,1.1898332E0],"tree_param":{"num_deleted":"0","num_feature":"77","num_nodes":"9","size_leaf_vector":"1"}},{"base_weights":[1.5676873E-2,4.2609546E-1,-4.8096977E-2,8.168202E-2,5.0734818E-2,3.90541E-2,-3.4133416E-2],"categories":[],"categories_nodes":[],"categories_segments":[],"categories_sizes":[],"default_left":[0,0,0,0,0,0,0],"id":48,"left_children":[1,3,-1,5,-1,-1,-1],"loss_changes":[7.195426E0,4.9888182E-1,0E0,7.7055645E-1,0E0,0E0,0E0],"parents":[2147483647,0,0,1,1,3,3],"right_children":[2,4,-1,6,-1,-1,-1],"split_conditions":[-5.384765E-1,-2.1352357E-1,-4.8096977E-2,6.2892765E-1,5.0734818E-2,3.90541E-2,-3.4133416E-2],"split_indices":[7,17,0,0,0,0,0],"split_type":[0,0,0,0,0,0,0],"sum_hessian":[3.3295166E1,1.8307926E1,1.498724E1,3.8774593E0,1.4430468E1,2.2855036E0,1.5919557E0],"tree_param":{"num_deleted":"0","num_feature":"77","num_nodes":"7","size_leaf_vector":"1"}},{"base_weights":[-6.75704E-3,-3.961271E-1,4.9341384E-2,-4.6207452E-1,3.0976811E-2,-5.0841887E-2,-1.2157815E-1,2.3140024E-2,-3.5294056E-2],"categories":[],"categories_nodes":[],"categories_segments":[],"categories_sizes":[],"default_left":[0,0,0,0,0,0,0,0,0],"id":49,"left_children":[1,3,-1,5,-1,-1,7,-1,-1],"loss_changes":[7.0547724E0,1.0908716E0,0E0,2.3833275E-1,0E0,0E0,3.75095E-1,0E0,0E0],"parents":[2147483647,0,0,1,1,3,3,6,6],"right_children":[2,4,-1,6,-1,-1,8,-1,-1],"split_conditions":[-5.384765E-1,-5.2484775E-1,4.9341384E-2,4.0851185E-1,3.0976811E-2,-5.0841887E-2,1.9573772E0,2.3140024E-2,-3.5294056E-2],"split_indices":[7,14,0,36,0,0,48,0,0],"split_type":[0,0,0,0,0,0,0,0,0],"sum_hessian":[3.4220863E1,1.9358662E1,1.4862201E1,1.8020523E1,1.3381394E0,1.5427538E1,2.5929854E0,1.0265954E0,1.56639E0],"tree_param":{"num_deleted":"0","num_feature":"77","num_nodes":"9","size_leaf_vector":"1"}},{"base_weights":[1.1838179E-2,4.8767757E-2,-3.7486467E-1,3.7731178E-2,-4.8799675E-2,2.192044E-2,-2.0377679E-2],"categories":[],"categories_nodes":[],"categories_segments":[],"categories_sizes":[],"default_left":[0,0,0,0,0,0,0],"id":50,"left_children":[1,-1,3,5,-1,-1,-1],"loss_changes":[6.2172914E0,0E0,8.8929033E-1,2.6131108E-1,0E0,0E0,0E0],"parents":[2147483647,0,0,2,2,3,3],"right_children":[2,-1,4,6,-1,-1,-1],"split_conditions":[-5.989315E-1,4.8767757E-2,-6.4600676E-1,-5.207148E-2,-4.8799675E-2,2.192044E-2,-2.0377679E-2],"split_indices":[14,0,52,19,0,0,0],"split_type":[0,0,0,0,0,0,0],"sum_hessian":[3.1794573E1,1.4137368E1,1.7657204E1,3.9430995E0,1.3714105E1,2.304106E0,1.6389935E0],"tree_param":{"num_deleted":"0","num_feature":"77","num_nodes":"7","size_leaf_vector":"1"}},{"base_weights":[3.2781214E-2,-4.8719596E-2,4.2506388E-1,1.320435E-1,4.9050473E-2,-4.072613E-3,2.9758481E-2,-2.2592163E-2,1.876088E-2],"categories":[],"categories_nodes":[],"categories_segments":[],"categories_sizes":[],"default_left":[0,0,0,0,0,0,0,0,0],"id":51,"left_children":[1,-1,3,5,-1,7,-1,-1,-1],"loss_changes":[6.9261794E0,0E0,3.055036E-1,1.11477144E-1,0E0,1.985315E-1,0E0,0E0,0E0],"parents":[2147483647,0,0,2,2,3,3,5,5],"right_children":[2,-1,4,6,-1,8,-1,-1,-1],"split_conditions":[-5.989315E-1,-4.8719596E-2,-6.026702E-1,-5.2484775E-1,4.9050473E-2,-5.0026104E-2,2.9758481E-2,-2.2592163E-2,1.876088E-2],"split_indices":[14,0,6,14,0,24,0,0,0],"split_type":[0,0,0,0,0,0,0,0,0],"sum_hessian":[3.1940266E1,1.3630655E1,1.830961E1,3.8935335E0,1.4416077E1,2.6719358E0,1.2215977E0,1.1557076E0,1.5162283E0],"tree_param":{"num_deleted":"0","num_feature":"77","num_nodes":"9","size_leaf_vector":"1"}},{"base_weights":[5.5264826E-3,3.651246E-1,-4.677813E-2,-4.545508E-2,4.976179E-2,3.5618663E-2,-3.882149E-2],"categories":[],"categories_nodes":[],"categories_segments":[],"categories_sizes":[],"default_left":[0,0,0,0,0,0,0],"id":52,"left_children":[1,3,-1,5,-1,-1,-1],"loss_changes":[5.3228474E0,9.8891735E-1,0E0,8.610222E-1,0E0,0E0,0E0],"parents":[2147483647,0,0,1,1,3,3],"right_children":[2,4,-1,6,-1,-1,-1],"split_conditions":[-5.384765E-1,-2.1352357E-1,-4.677813E-2,-2.49989E-1,4.976179E-2,3.5618663E-2,-3.882149E-2],"split_indices":[7,17,0,4,0,0,0],"split_type":[0,0,0,0,0,0,0],"sum_hessian":[2.9270452E1,1.6763138E1,1.2507315E1,4.2499657E0,1.2513171E1,1.9388604E0,2.3111053E0],"tree_param":{"num_deleted":"0","num_feature":"77","num_nodes":"7","size_leaf_vector":"1"}},{"base_weights":[8.58344E-3,-4.8249792E-2,4.1627473E-1,-3.0860985E-3,4.5431343E-1,4.8778895E-2,3.6997627E-3],"categories":[],"categories_nodes":[],"categories_segments":[],"categories_sizes":[],"default_left":[0,0,0,0,0,0,0],"id":53,"left_children":[1,-1,3,-1,5,-1,-1],"loss_changes":[6.104024E0,0E0,2.9716325E-1,0E0,1.9716716E-1,0E0,0E0],"parents":[2147483647,0,0,2,2,4,4],"right_children":[2,-1,4,-1,6,-1,-1],"split_conditions":[-5.989315E-1,-4.8249792E-2,-8.5835606E-1,-3.0860985E-3,-1.4077155E-1,4.8778895E-2,3.6997627E-3],"split_indices":[14,0,52,0,61,0,0],"split_type":[0,0,0,0,0,0,0],"sum_hessian":[2.8484962E1,1.2837801E1,1.5647161E1,1.2415644E0,1.4405597E1,1.3179513E1,1.226084E0],"tree_param":{"num_deleted":"0","num_feature":"77","num_nodes":"7","size_leaf_vector":"1"}},{"base_weights":[1.7537242E-3,4.374195E-1,-4.334015E-1,4.772478E-2,1.2184661E-2,-3.3161056E-3,-4.6607193E-2],"categories":[],"categories_nodes":[],"categories_segments":[],"categories_sizes":[],"default_left":[0,0,0,0,0,0,0],"id":54,"left_children":[1,3,5,-1,-1,-1,-1],"loss_changes":[5.553405E0,1.2580252E-1,1.7620039E-1,0E0,0E0,0E0,0E0],"parents":[2147483647,0,0,1,1,2,2],"right_children":[2,4,6,-1,-1,-1,-1],"split_conditions":[-7.59425E-1,1.58422E-2,-6.4600676E-1,4.772478E-2,1.2184661E-2,-3.3161056E-3,-4.6607193E-2],"split_indices":[7,36,52,0,0,0,0],"split_type":[0,0,0,0,0,0,0],"sum_hessian":[2.7292871E1,1.3635835E1,1.3657037E1,1.1652818E1,1.9830174E0,1.1827209E0,1.2474316E1],"tree_param":{"num_deleted":"0","num_feature":"77","num_nodes":"7","size_leaf_vector":"1"}},{"base_weights":[1.0674303E-2,-4.5333873E-2,4.3840596E-1,3.3161074E-3,4.6946157E-2],"categories":[],"categories_nodes":[],"categories_segments":[],"categories_sizes":[],"default_left":[0,0,0,0,0],"id":55,"left_children":[1,-1,3,-1,-1],"loss_changes":[5.935373E0,0E0,1.8010902E-1,0E0,0E0],"parents":[2147483647,0,0,2,2],"right_children":[2,-1,4,-1,-1],"split_conditions":[-7.59425E-1,-4.5333873E-2,-6.4600676E-1,3.3161074E-3,4.6946157E-2],"split_indices":[7,0,52,0,0],"split_type":[0,0,0,0,0],"sum_hessian":[2.7903807E1,1.3355542E1,1.4548264E1,1.182721E0,1.3365542E1],"tree_param":{"num_deleted":"0","num_feature":"77","num_nodes":"5","size_leaf_vector":"1"}},{"base_weights":[3.4100104E-2,4.740184E-2,-3.3468312E-1,2.8482065E-2,-4.6848934E-2,1.682534E-2,-1.7671341E-2],"categories":[],"categories_nodes":[],"categories_segments":[],"categories_sizes":[],"default_left":[0,0,0,0,0,0,0],"id":56,"left_children":[1,-1,3,5,-1,-1,-1],"loss_changes":[4.2231345E0,0E0,7.040844E-1,1.6653472E-1,0E0,0E0,0E0],"parents":[2147483647,0,0,2,2,3,3],"right_children":[2,-1,4,6,-1,-1,-1],"split_conditions":[-5.989315E-1,4.740184E-2,-6.4600676E-1,-5.207148E-2,-4.6848934E-2,1.682534E-2,-1.7671341E-2],"split_indices":[14,0,52,19,0,0,0],"split_type":[0,0,0,0,0,0,0],"sum_hessian":[2.4053171E1,1.0838573E1,1.3214598E1,3.7698734E0,9.444724E0,2.34951E0,1.4203633E0],"tree_param":{"num_deleted":"0","num_feature":"77","num_nodes":"7","size_leaf_vector":"1"}},{"base_weights":[-1.5460592E-2,-4.7525145E-2,3.757102E-1,-2.1818122E-2,4.418366E-1,4.8081577E-2,-1.2943841E-3],"categories":[],"categories_nodes":[],"categories_segments":[],"categories_sizes":[],"default_left":[0,0,0,0,0,0,0],"id":57,"left_children":[1,-1,3,-1,5,-1,-1],"loss_changes":[4.787052E0,0E0,6.6204E-1,0E0,2.4182725E-1,0E0,0E0],"parents":[2147483647,0,0,2,2,4,4],"right_children":[2,-1,4,-1,6,-1,-1],"split_conditions":[-5.989315E-1,-4.7525145E-2,-9.045255E-1,-2.1818122E-2,-1.9527206E-1,4.8081577E-2,-1.2943841E-3],"split_indices":[14,0,6,0,22,0,0],"split_type":[0,0,0,0,0,0,0],"sum_hessian":[2.4623142E1,1.1219981E1,1.3403161E1,1.112467E0,1.2290694E1,1.1267694E1,1.0230001E0],"tree_param":{"num_deleted":"0","num_feature":"77","num_nodes":"7","size_leaf_vector":"1"}},{"base_weights":[-9.498909E-3,4.6941113E-2,-4.214483E-1,-4.5702934E-2,-7.562247E-3],"categories":[],"categories_nodes":[],"categories_segments":[],"categories_sizes":[],"default_left":[0,0,0,0,0],"id":58,"left_children":[1,-1,3,-1,-1],"loss_changes":[4.713463E0,0E0,1.2332749E-1,0E0,0E0],"parents":[2147483647,0,0,2,2],"right_children":[2,-1,4,-1,-1],"split_conditions":[-5.989315E-1,4.6941113E-2,-1.4077155E-1,-4.5702934E-2,-7.562247E-3],"split_indices":[14,0,61,0,0],"split_type":[0,0,0,0,0],"sum_hessian":[2.1888672E1,1.0057213E1,1.1831459E1,1.0436152E1,1.395306E0],"tree_param":{"num_deleted":"0","num_feature":"77","num_nodes":"5","size_leaf_vector":"1"}},{"base_weights":[-7.495142E-3,-3.626536E-1,4.514746E-2,4.385096E-2,-4.6838023E-2,-3.1650178E-2,3.3788558E-2],"categories":[],"categories_nodes":[],"categories_segments":[],"categories_sizes":[],"default_left":[0,0,0,0,0,0,0],"id":59,"left_children":[1,3,-1,5,-1,-1,-1],"loss_changes":[4.1754985E0,6.406807E-1,0E0,5.193896E-1,0E0,0E0,0E0],"parents":[2147483647,0,0,1,1,3,3],"right_children":[2,4,-1,6,-1,-1,-1],"split_conditions":[-5.3840554E-1,-2.4266471E-1,4.514746E-2,6.2892765E-1,-4.6838023E-2,-3.1650178E-2,3.3788558E-2],"split_indices":[38,1,0,0,0,0,0],"split_type":[0,0,0,0,0,0,0],"sum_hessian":[2.3611027E1,1.3429165E1,1.0181861E1,2.8926303E0,1.0536534E1,1.265407E0,1.6272234E0],"tree_param":{"num_deleted":"0","num_feature":"77","num_nodes":"7","size_leaf_vector":"1"}},{"base_weights":[-1.9250248E-2,4.6410747E-2,-3.729046E-1,-4.4008848E-1,2.704276E-3,-1.720581E-2,-4.660483E-2],"categories":[],"categories_nodes":[],"categories_segments":[],"categories_sizes":[],"default_left":[0,0,0,0,0,0,0],"id":60,"left_children":[1,-1,3,5,-1,-1,-1],"loss_changes":[4.094637E0,0E0,3.827734E-1,2.440691E-3,0E0,0E0,0E0],"parents":[2147483647,0,0,2,2,3,3],"right_children":[2,-1,4,6,-1,-1,-1],"split_conditions":[-5.989315E-1,4.6410747E-2,-2.135228E-1,-8.6432093E-1,2.704276E-3,-1.720581E-2,-4.660483E-2],"split_indices":[14,0,17,40,0,0,0],"split_type":[0,0,0,0,0,0,0],"sum_hessian":[2.1940998E1,9.13855E0,1.2802448E1,1.0875239E1,1.9272085E0,1.6338551E0,9.2413845E0],"tree_param":{"num_deleted":"0","num_feature":"77","num_nodes":"7","size_leaf_vector":"1"}},{"base_weights":[9.841428E-3,-3.4618688E-1,4.4832207E-2,1.5583078E-2,-4.808606E-2,-3.4994107E-2,3.5914302E-2],"categories":[],"categories_nodes":[],"categories_segments":[],"categories_sizes":[],"default_left":[0,0,0,0,0,0,0],"id":61,"left_children":[1,3,-1,5,-1,-1,-1],"loss_changes":[3.751138E0,6.543461E-1,0E0,6.996113E-1,0E0,0E0,0E0],"parents":[2147483647,0,0,1,1,3,3],"right_children":[2,4,-1,6,-1,-1,-1],"split_conditions":[-5.384765E-1,-2.1352357E-1,4.4832207E-2,6.2892765E-1,-4.808606E-2,-3.4994107E-2,3.5914302E-2],"split_indices":[7,17,0,0,0,0,0],"split_type":[0,0,0,0,0,0,0],"sum_hessian":[2.2034399E1,1.2276704E1,9.757695E0,3.5702736E0,8.70643E0,1.7208424E0,1.8494314E0],"tree_param":{"num_deleted":"0","num_feature":"77","num_nodes":"7","size_leaf_vector":"1"}},{"base_weights":[-2.1968134E-2,3.8394514E-1,-4.160507E-1,5.6445883E-3,4.508626E-2,-4.6040565E-2,-1.1896972E-3],"categories":[],"categories_nodes":[],"categories_segments":[],"categories_sizes":[],"default_left":[0,0,0,0,0,0,0],"id":62,"left_children":[1,3,5,-1,-1,-1,-1],"loss_changes":[3.2992423E0,1.9782782E-1,1.8164074E-1,0E0,0E0,0E0,0E0],"parents":[2147483647,0,0,1,1,2,2],"right_children":[2,4,6,-1,-1,-1,-1],"split_conditions":[-7.59425E-1,-2.4266267E-1,-1.4077155E-1,5.6445883E-3,4.508626E-2,-4.6040565E-2,-1.1896972E-3],"split_indices":[7,1,2,0,0,0,0],"split_type":[0,0,0,0,0,0,0],"sum_hessian":[1.8626383E1,9.188135E0,9.438247E0,1.8716501E0,7.316485E0,8.379438E0,1.0588086E0],"tree_param":{"num_deleted":"0","num_feature":"77","num_nodes":"7","size_leaf_vector":"1"}},{"base_weights":[-5.5924165E-3,-4.6038054E-2,3.3547673E-1,5.0111087E-3,4.5946207E-2,-1.2814767E-2,1.730929E-2],"categories":[],"categories_nodes":[],"categories_segments":[],"categories_sizes":[],"default_left":[0,0,0,0,0,0,0],"id":63,"left_children":[1,-1,3,5,-1,-1,-1],"loss_changes":[3.485409E0,0E0,5.241915E-1,1.2327384E-1,0E0,0E0,0E0],"parents":[2147483647,0,0,2,2,3,3],"right_children":[2,-1,4,6,-1,-1,-1],"split_conditions":[-5.989315E-1,-4.6038054E-2,-6.4600676E-1,-5.207148E-2,4.5946207E-2,-1.2814767E-2,1.730929E-2],"split_indices":[14,0,52,19,0,0,0],"split_type":[0,0,0,0,0,0,0],"sum_hessian":[2.0474258E1,8.624444E0,1.1849814E1,3.5167706E0,8.333044E0,2.0948017E0,1.421969E0],"tree_param":{"num_deleted":"0","num_feature":"77","num_nodes":"7","size_leaf_vector":"1"}},{"base_weights":[2.6494865E-3,4.5424264E-2,-3.134703E-1,2.8452165E-2,-4.5614053E-2,1.5407249E-2,-1.5896216E-2],"categories":[],"categories_nodes":[],"categories_segments":[],"categories_sizes":[],"default_left":[0,0,0,0,0,0,0],"id":64,"left_children":[1,-1,3,5,-1,-1,-1],"loss_changes":[3.035453E0,0E0,6.2336624E-1,1.3338141E-1,0E0,0E0,0E0],"parents":[2147483647,0,0,2,2,3,3],"right_children":[2,-1,4,6,-1,-1,-1],"split_conditions":[-5.989315E-1,4.5424264E-2,-6.4600676E-1,-5.0026104E-2,-4.5614053E-2,1.5407249E-2,-1.5896216E-2],"split_indices":[14,0,52,24,0,0,0],"split_type":[0,0,0,0,0,0,0],"sum_hessian":[1.9265562E1,7.7530317E0,1.1512529E1,3.625133E0,7.887397E0,2.2768843E0,1.3482487E0],"tree_param":{"num_deleted":"0","num_feature":"77","num_nodes":"7","size_leaf_vector":"1"}},{"base_weights":[1.0343535E-2,-3.8544372E-1,4.101373E-1,-4.502734E-2,-4.0970603E-3,4.563375E-2,7.295353E-4],"categories":[],"categories_nodes":[],"categories_segments":[],"categories_sizes":[],"default_left":[0,0,0,0,0,0,0],"id":65,"left_children":[1,3,5,-1,-1,-1,-1],"loss_changes":[3.1565995E0,2.0572627E-1,1.8114197E-1,0E0,0E0,0E0,0E0],"parents":[2147483647,0,0,1,1,2,2],"right_children":[2,4,6,-1,-1,-1,-1],"split_conditions":[-7.59425E-1,-5.989315E-1,-1.9527206E-1,-4.502734E-2,-4.0970603E-3,4.563375E-2,7.295353E-4],"split_indices":[7,14,22,0,0,0,0],"split_type":[0,0,0,0,0,0,0],"sum_hessian":[1.7949963E1,9.038216E0,8.911747E0,7.34816E0,1.6900562E0,7.8757195E0,1.0360273E0],"tree_param":{"num_deleted":"0","num_feature":"77","num_nodes":"7","size_leaf_vector":"1"}},{"base_weights":[9.6176425E-3,3.2912523E-1,-4.230569E-2,-7.317979E-2,4.4909257E-2,2.1568185E-2,-3.0067373E-2],"categories":[],"categories_nodes":[],"categories_segments":[],"categories_sizes":[],"default_left":[0,0,0,0,0,0,0],"id":66,"left_children":[1,3,-1,5,-1,-1,-1],"loss_changes":[2.6288888E0,5.599897E-1,0E0,2.8621855E-1,0E0,0E0,0E0],"parents":[2147483647,0,0,1,1,3,3],"right_children":[2,4,-1,6,-1,-1,-1],"split_conditions":[-5.3840554E-1,-2.4266471E-1,-4.230569E-2,-8.8012075E-1,4.4909257E-2,2.1568185E-2,-3.0067373E-2],"split_indices":[38,1,0,39,0,0,0],"split_type":[0,0,0,0,0,0,0],"sum_hessian":[1.7009256E1,9.921827E0,7.087429E0,2.3686543E0,7.553173E0,1.0664485E0,1.3022059E0],"tree_param":{"num_deleted":"0","num_feature":"77","num_nodes":"7","size_leaf_vector":"1"}},{"base_weights":[2.245117E-2,-3.5792187E-1,4.0171874E-1,-4.4157363E-2,-1.1384385E-3,6.656343E-4,4.50049E-2],"categories":[],"categories_nodes":[],"categories_segments":[],"categories_sizes":[],"default_left":[0,0,0,0,0,0,0],"id":67,"left_children":[1,3,5,-1,-1,-1,-1],"loss_changes":[2.6563118E0,2.6237106E-1,1.725111E-1,0E0,0E0,0E0,0E0],"parents":[2147483647,0,0,1,1,2,2],"right_children":[2,4,6,-1,-1,-1,-1],"split_conditions":[-7.59425E-1,-5.989315E-1,-6.4600676E-1,-4.4157363E-2,-1.1384385E-3,6.656343E-4,4.50049E-2],"split_indices":[7,14,52,0,0,0,0],"split_type":[0,0,0,0,0,0,0],"sum_hessian":[1.6416283E1,8.224297E0,8.191986E0,6.4041367E0,1.8201596E0,1.0169482E0,7.175038E0],"tree_param":{"num_deleted":"0","num_feature":"77","num_nodes":"7","size_leaf_vector":"1"}},{"base_weights":[-4.01648E-2,4.398929E-2,-3.8953808E-1,-8.227823E-3,-4.5037266E-2],"categories":[],"categories_nodes":[],"categories_segments":[],"categories_sizes":[],"default_left":[0,0,0,0,0],"id":68,"left_children":[1,-1,3,-1,-1],"loss_changes":[2.8927472E0,0E0,1.483978E-1,0E0,0E0],"parents":[2147483647,0,0,2,2],"right_children":[2,-1,4,-1,-1],"split_conditions":[-5.989315E-1,4.398929E-2,-8.4628415E-1,-8.227823E-3,-4.5037266E-2],"split_indices":[14,0,8,0,0],"split_type":[0,0,0,0,0],"sum_hessian":[1.5225869E1,6.3043127E0,8.921556E0,1.8632492E0,7.058307E0],"tree_param":{"num_deleted":"0","num_feature":"77","num_nodes":"5","size_leaf_vector":"1"}},{"base_weights":[-1.5054162E-2,-3.385183E-1,3.9840975E-1,-4.419739E-2,6.0897516E-3,8.986766E-3,4.3771952E-2,-3.0177668E-2,2.954234E-2],"categories":[],"categories_nodes":[],"categories_segments":[],"categories_sizes":[],"default_left":[0,0,0,0,0,0,0,0,0],"id":69,"left_children":[1,3,5,-1,7,-1,-1,-1,-1],"loss_changes":[2.484302E0,3.7335765E-1,5.9756994E-2,0E0,3.9085242E-1,0E0,0E0,0E0,0E0],"parents":[2147483647,0,0,1,1,2,2,4,4],"right_children":[2,4,6,-1,8,-1,-1,-1,-1],"split_conditions":[-5.614966E-1,4.0851185E-1,-7.5868976E-1,-4.419739E-2,6.2892765E-1,8.986766E-3,4.3771952E-2,-3.0177668E-2,2.954234E-2],"split_indices":[8,36,36,0,0,0,0,0,0],"split_type":[0,0,0,0,0,0,0,0,0],"sum_hessian":[1.6567068E1,9.396889E0,7.17018E0,7.0098915E0,2.386997E0,1.1816392E0,5.9885406E0,1.1356251E0,1.2513717E0],"tree_param":{"num_deleted":"0","num_feature":"77","num_nodes":"9","size_leaf_vector":"1"}},{"base_weights":[-5.26216E-2,4.1220494E-2,-3.3326805E-1,-3.9427704E-1,6.9268667E-3,-5.177143E-3,-4.468498E-2],"categories":[],"categories_nodes":[],"categories_segments":[],"categories_sizes":[],"default_left":[0,0,0,0,0,0,0],"id":70,"left_children":[1,-1,3,5,-1,-1,-1],"loss_changes":[2.1135669E0,0E0,2.7286327E-1,1.3590229E-1,0E0,0E0,0E0],"parents":[2147483647,0,0,2,2,3,3],"right_children":[2,-1,4,6,-1,-1,-1],"split_conditions":[-7.628646E-1,4.1220494E-2,-1.4077155E-1,-8.5835606E-1,6.9268667E-3,-5.177143E-3,-4.468498E-2],"split_indices":[36,0,2,52,0,0,0],"split_type":[0,0,0,0,0,0,0],"sum_hessian":[1.4148817E1,5.150095E0,8.998722E0,7.8321843E0,1.1665373E0,1.3063325E0,6.525852E0],"tree_param":{"num_deleted":"0","num_feature":"77","num_nodes":"7","size_leaf_vector":"1"}},{"base_weights":[1.8090572E-2,-4.3854907E-2,3.2667345E-1,-2.1310577E-2,4.0854278E-1,4.547416E-2,4.087084E-3],"categories":[],"categories_nodes":[],"categories_segments":[],"categories_sizes":[],"default_left":[0,0,0,0,0,0,0],"id":71,"left_children":[1,-1,3,-1,5,-1,-1],"loss_changes":[2.4643714E0,0E0,5.4677236E-1,0E0,1.4066672E-1,0E0,0E0],"parents":[2147483647,0,0,2,2,4,4],"right_children":[2,-1,4,-1,6,-1,-1],"split_conditions":[-5.989315E-1,-4.3854907E-2,-9.045255E-1,-2.1310577E-2,-1.9527206E-1,4.547416E-2,4.087084E-3],"split_indices":[14,0,6,0,22,0,0],"split_type":[0,0,0,0,0,0,0],"sum_hessian":[1.5472145E1,6.069441E0,9.402704E0,1.0271989E0,8.375505E0,7.230201E0,1.1453047E0],"tree_param":{"num_deleted":"0","num_feature":"77","num_nodes":"7","size_leaf_vector":"1"}},{"base_weights":[-8.461494E-3,4.2916335E-2,-2.759161E-1,2.78338E-2,-4.3555927E-2,-3.4207918E-3,8.976999E-3],"categories":[],"categories_nodes":[],"categories_segments":[],"categories_sizes":[],"default_left":[0,0,0,0,0,0,0],"id":72,"left_children":[1,-1,3,5,-1,-1,-1],"loss_changes":[1.9423954E0,0E0,5.1066715E-1,2.0292906E-2,0E0,0E0,0E0],"parents":[2147483647,0,0,2,2,3,3],"right_children":[2,-1,4,6,-1,-1,-1],"split_conditions":[-5.989315E-1,4.2916335E-2,-6.4600676E-1,-8.6432093E-1,-4.3555927E-2,-3.4207918E-3,8.976999E-3],"split_indices":[14,0,52,40,0,0,0],"split_type":[0,0,0,0,0,0,0],"sum_hessian":[1.45836315E1,5.302595E0,9.281036E0,3.4818459E0,5.7991905E0,1.9630957E0,1.5187501E0],"tree_param":{"num_deleted":"0","num_feature":"77","num_nodes":"7","size_leaf_vector":"1"}},{"base_weights":[-8.930409E-3,-3.159176E-1,4.070063E-2,3.1760197E-2,-4.5736935E-2,-3.007615E-2,3.168352E-2],"categories":[],"categories_nodes":[],"categories_segments":[],"categories_sizes":[],"default_left":[0,0,0,0,0,0,0],"id":73,"left_children":[1,3,-1,5,-1,-1,-1],"loss_changes":[2.0801206E0,4.7467822E-1,0E0,4.4042575E-1,0E0,0E0,0E0],"parents":[2147483647,0,0,1,1,3,3],"right_children":[2,4,-1,6,-1,-1,-1],"split_conditions":[-5.384765E-1,-2.1352357E-1,4.070063E-2,-8.9391536E-1,-4.5736935E-2,-3.007615E-2,3.168352E-2],"split_indices":[7,17,0,7,0,0,0],"split_type":[0,0,0,0,0,0,0],"sum_hessian":[1.428375E1,8.356557E0,5.9271927E0,2.6408978E0,5.715659E0,1.1936066E0,1.4472913E0],"tree_param":{"num_deleted":"0","num_feature":"77","num_nodes":"7","size_leaf_vector":"1"}},{"base_weights":[2.629666E-2,2.9791844E-1,-3.9128482E-2,-1.5213132E-2,4.5090344E-2,3.2336462E-2,-3.2933973E-2],"categories":[],"categories_nodes":[],"categories_segments":[],"categories_sizes":[],"default_left":[0,0,0,0,0,0,0],"id":74,"left_children":[1,3,-1,5,-1,-1,-1],"loss_changes":[1.7385222E0,4.4910765E-1,0E0,5.3164274E-1,0E0,0E0,0E0],"parents":[2147483647,0,0,1,1,3,3],"right_children":[2,4,-1,6,-1,-1,-1],"split_conditions":[-5.384765E-1,-2.1352357E-1,-3.9128482E-2,-2.49989E-1,4.5090344E-2,3.2336462E-2,-3.2933973E-2],"split_indices":[7,17,0,4,0,0,0],"split_type":[0,0,0,0,0,0,0],"sum_hessian":[1.3299865E1,8.231882E0,5.067982E0,2.9973748E0,5.2345076E0,1.4283911E0,1.5689838E0],"tree_param":{"num_deleted":"0","num_feature":"77","num_nodes":"7","size_leaf_vector":"1"}},{"base_weights":[-3.6387566E-2,-3.4961832E-1,3.9215215E-2,-4.7224523E-3,-4.4961464E-2],"categories":[],"categories_nodes":[],"categories_segments":[],"categories_sizes":[],"default_left":[0,0,0,0,0],"id":75,"left_children":[1,3,-1,-1,-1],"loss_changes":[1.9349657E0,2.2873366E-1,0E0,0E0,0E0],"parents":[2147483647,0,0,1,1],"right_children":[2,4,-1,-1,-1],"split_conditions":[-5.384765E-1,-2.1352357E-1,3.9215215E-2,-4.7224523E-3,-4.4961464E-2],"split_indices":[7,17,0,0,0],"split_type":[0,0,0,0,0],"sum_hessian":[1.2393712E1,7.2665596E0,5.127153E0,2.171649E0,5.0949106E0],"tree_param":{"num_deleted":"0","num_feature":"77","num_nodes":"5","size_leaf_vector":"1"}},{"base_weights":[-1.6796801E-2,-3.288832E-1,3.74871E-2,6.2071937E-3,-4.2750537E-2],"categories":[],"categories_nodes":[],"categories_segments":[],"categories_sizes":[],"default_left":[0,0,0,0,0],"id":76,"left_children":[1,3,-1,-1,-1],"loss_changes":[1.6742525E0,3.19349E-1,0E0,0E0,0E0],"parents":[2147483647,0,0,1,1],"right_children":[2,4,-1,-1,-1],"split_conditions":[-2.135228E-1,-8.4628415E-1,3.74871E-2,6.2071937E-3,-4.2750537E-2],"split_indices":[17,8,0,0,0],"split_type":[0,0,0,0,0],"sum_hessian":[1.168846E1,6.594317E0,5.0941434E0,1.4030391E0,5.191278E0],"tree_param":{"num_deleted":"0","num_feature":"77","num_nodes":"5","size_leaf_vector":"1"}},{"base_weights":[1.369491E-2,-4.1964713E-2,3.107038E-1,7.435687E-2,4.1560214E-2,-4.7344523E-3,1.6725155E-2],"categories":[],"categories_nodes":[],"categories_segments":[],"categories_sizes":[],"default_left":[0,0,0,0,0,0,0],"id":77,"left_children":[1,-1,3,5,-1,-1,-1],"loss_changes":[1.7902998E0,0E0,1.7305797E-1,5.0277438E-2,0E0,0E0,0E0],"parents":[2147483647,0,0,2,2,3,3],"right_children":[2,-1,4,6,-1,-1,-1],"split_conditions":[-5.989315E-1,-4.1964713E-2,-6.026702E-1,-5.207148E-2,4.1560214E-2,-4.7344523E-3,1.6725155E-2],"split_indices":[14,0,6,19,0,0,0],"split_type":[0,0,0,0,0,0,0],"sum_hessian":[1.1896897E1,4.670147E0,7.2267504E0,2.74679E0,4.4799604E0,1.4012945E0,1.3454955E0],"tree_param":{"num_deleted":"0","num_feature":"77","num_nodes":"7","size_leaf_vector":"1"}},{"base_weights":[-3.9604492E-3,4.1316207E-2,-2.8865138E-1,1.214231E-2,-4.1776635E-2,-1.4200377E-2,1.8618932E-2],"categories":[],"categories_nodes":[],"categories_segments":[],"categories_sizes":[],"default_left":[0,0,0,0,0,0,0],"id":78,"left_children":[1,-1,3,5,-1,-1,-1],"loss_changes":[1.5881627E0,0E0,3.134606E-1,1.1649156E-1,0E0,0E0,0E0],"parents":[2147483647,0,0,2,2,3,3],"right_children":[2,-1,4,6,-1,-1,-1],"split_conditions":[-5.989315E-1,4.1316207E-2,-6.4600676E-1,-2.4266471E-1,-4.1776635E-2,-1.4200377E-2,1.8618932E-2],"split_indices":[14,0,52,1,0,0,0],"split_type":[0,0,0,0,0,0,0],"sum_hessian":[1.1369605E1,4.4290295E0,6.940576E0,2.3565583E0,4.5840178E0,1.3473626E0,1.0091957E0],"tree_param":{"num_deleted":"0","num_feature":"77","num_nodes":"7","size_leaf_vector":"1"}},{"base_weights":[-2.255468E-2,-4.1889023E-2,2.4303152E-1,-5.013937E-2,4.15549E-2,-2.0429576E-2,1.5714897E-2],"categories":[],"categories_nodes":[],"categories_segments":[],"categories_sizes":[],"default_left":[0,0,0,0,0,0,0],"id":79,"left_children":[1,-1,3,5,-1,-1,-1],"loss_changes":[1.48622E0,0E0,4.51141E-1,1.6133489E-1,0E0,0E0,0E0],"parents":[2147483647,0,0,2,2,3,3],"right_children":[2,-1,4,6,-1,-1,-1],"split_conditions":[-5.989315E-1,-4.1889023E-2,-6.4600676E-1,-5.207148E-2,4.15549E-2,-2.0429576E-2,1.5714897E-2],"split_indices":[14,0,52,19,0,0,0],"split_type":[0,0,0,0,0,0,0],"sum_hessian":[1.2152195E1,4.644282E0,7.5079126E0,3.044148E0,4.4637647E0,1.7540966E0,1.2900513E0],"tree_param":{"num_deleted":"0","num_feature":"77","num_nodes":"7","size_leaf_vector":"1"}},{"base_weights":[2.1072028E-2,3.0129644E-1,-3.662453E-2,1.1016515E-2,4.31583E-2,3.0362224E-2,-2.9394198E-2],"categories":[],"categories_nodes":[],"categories_segments":[],"categories_sizes":[],"default_left":[0,0,0,0,0,0,0],"id":80,"left_children":[1,3,-1,5,-1,-1,-1],"loss_changes":[1.4203254E0,2.808426E-1,0E0,3.8956696E-1,0E0,0E0,0E0],"parents":[2147483647,0,0,1,1,3,3],"right_children":[2,4,-1,6,-1,-1,-1],"split_conditions":[-6.4600676E-1,-2.1352357E-1,-3.662453E-2,6.2892765E-1,4.31583E-2,3.0362224E-2,-2.9394198E-2],"split_indices":[52,17,0,0,0,0,0],"split_type":[0,0,0,0,0,0,0],"sum_hessian":[1.1069544E1,6.5515704E0,4.517973E0,2.3655822E0,4.1859884E0,1.2094778E0,1.1561046E0],"tree_param":{"num_deleted":"0","num_feature":"77","num_nodes":"7","size_leaf_vector":"1"}},{"base_weights":[-1.853122E-3,-2.5876272E-1,3.7187535E-2,4.038448E-2,-4.2802643E-2,-3.0047068E-2,3.221869E-2],"categories":[],"categories_nodes":[],"categories_segments":[],"categories_sizes":[],"default_left":[0,0,0,0,0,0,0],"id":81,"left_children":[1,3,-1,5,-1,-1,-1],"loss_changes":[1.2340668E0,4.0275013E-1,0E0,4.4881308E-1,0E0,0E0,0E0],"parents":[2147483647,0,0,1,1,3,3],"right_children":[2,4,-1,6,-1,-1,-1],"split_conditions":[-5.384765E-1,-2.1352357E-1,3.7187535E-2,6.2892765E-1,-4.2802643E-2,-3.0047068E-2,3.221869E-2],"split_indices":[7,17,0,0,0,0,0],"split_type":[0,0,0,0,0,0,0],"sum_hessian":[1.0850711E1,6.6126447E0,4.2380667E0,2.6646688E0,3.9479756E0,1.1759945E0,1.4886744E0],"tree_param":{"num_deleted":"0","num_feature":"77","num_nodes":"7","size_leaf_vector":"1"}},{"base_weights":[2.3176627E-2,4.086067E-2,-2.660216E-1,-3.645579E-1,1.3807483E-2,-9.729702E-3,-4.016313E-2],"categories":[],"categories_nodes":[],"categories_segments":[],"categories_sizes":[],"default_left":[0,0,0,0,0,0,0],"id":82,"left_children":[1,-1,3,5,-1,-1,-1],"loss_changes":[1.3305863E0,0E0,3.2382795E-1,1.8357933E-2,0E0,0E0,0E0],"parents":[2147483647,0,0,2,2,3,3],"right_children":[2,-1,4,6,-1,-1,-1],"split_conditions":[-5.989315E-1,4.086067E-2,-2.135228E-1,-2.3472211E-1,1.3807483E-2,-9.729702E-3,-4.016313E-2],"split_indices":[14,0,17,4,0,0,0],"split_type":[0,0,0,0,0,0,0],"sum_hessian":[9.962011E0,4.093495E0,5.8685164E0,4.7967134E0,1.0718031E0,1.0258486E0,3.7708645E0],"tree_param":{"num_deleted":"0","num_feature":"77","num_nodes":"7","size_leaf_vector":"1"}},{"base_weights":[1.6383497E-2,-4.017598E-2,2.8375775E-1,3.758697E-2,-1.1606751E-2],"categories":[],"categories_nodes":[],"categories_segments":[],"categories_sizes":[],"default_left":[0,0,0,0,0],"id":83,"left_children":[1,-1,3,-1,-1],"loss_changes":[1.3589307E0,0E0,3.1535554E-1,0E0,0E0],"parents":[2147483647,0,0,2,2],"right_children":[2,-1,4,-1,-1],"split_conditions":[-5.989315E-1,-4.017598E-2,-2.135228E-1,3.758697E-2,-1.1606751E-2],"split_indices":[14,0,17,0,0],"split_type":[0,0,0,0,0],"sum_hessian":[1.013524E1,3.7570398E0,6.3782E0,5.2326217E0,1.1455786E0],"tree_param":{"num_deleted":"0","num_feature":"77","num_nodes":"5","size_leaf_vector":"1"}},{"base_weights":[-3.5106078E-2,3.6395516E-2,-2.548746E-1,6.134217E-3,-3.9800182E-2,-8.949699E-3,9.603687E-3],"categories":[],"categories_nodes":[],"categories_segments":[],"categories_sizes":[],"default_left":[0,0,0,0,0,0,0],"id":84,"left_children":[1,-1,3,5,-1,-1,-1],"loss_changes":[9.894809E-1,0E0,2.7073085E-1,3.89292E-2,0E0,0E0,0E0],"parents":[2147483647,0,0,2,2,3,3],"right_children":[2,-1,4,6,-1,-1,-1],"split_conditions":[-7.633457E-1,3.6395516E-2,-6.4600676E-1,1.756359E-1,-3.9800182E-2,-8.949699E-3,9.603687E-3],"split_indices":[36,0,52,68,0,0,0],"split_type":[0,0,0,0,0,0,0],"sum_hessian":[9.224706E0,3.043023E0,6.1816826E0,2.5282578E0,3.6534247E0,1.2272841E0,1.3009738E0],"tree_param":{"num_deleted":"0","num_feature":"77","num_nodes":"7","size_leaf_vector":"1"}},{"base_weights":[1.4770849E-2,-2.6031756E-1,3.9933212E-2,8.197598E-3,-4.1911E-2],"categories":[],"categories_nodes":[],"categories_segments":[],"categories_sizes":[],"default_left":[0,0,0,0,0],"id":85,"left_children":[1,3,-1,-1,-1],"loss_changes":[1.1969577E0,3.9465052E-1,0E0,0E0,0E0],"parents":[2147483647,0,0,1,1],"right_children":[2,4,-1,-1,-1],"split_conditions":[-5.384765E-1,-2.1352357E-1,3.9933212E-2,8.197598E-3,-4.1911E-2],"split_indices":[7,17,0,0,0],"split_type":[0,0,0,0,0],"sum_hessian":[9.331994E0,5.6286955E0,3.7032988E0,1.937014E0,3.6916814E0],"tree_param":{"num_deleted":"0","num_feature":"77","num_nodes":"5","size_leaf_vector":"1"}},{"base_weights":[-1.7394486E-3,3.889331E-2,-2.2198771E-1,2.437962E-2,-3.9426386E-2,1.360508E-2,-1.3370583E-2],"categories":[],"categories_nodes":[],"categories_segments":[],"categories_sizes":[],"default_left":[0,0,0,0,0,0,0],"id":86,"left_children":[1,-1,3,5,-1,-1,-1],"loss_changes":[1.0179585E0,0E0,3.3049908E-1,8.973975E-2,0E0,0E0,0E0],"parents":[2147483647,0,0,2,2,3,3],"right_children":[2,-1,4,6,-1,-1,-1],"split_conditions":[-5.989315E-1,3.889331E-2,-6.026702E-1,-5.207148E-2,-3.9426386E-2,1.360508E-2,-1.3370583E-2],"split_indices":[14,0,6,19,0,0,0],"split_type":[0,0,0,0,0,0,0],"sum_hessian":[9.827133E0,3.2667477E0,6.560385E0,3.0529425E0,3.507443E0,1.8707991E0,1.1821434E0],"tree_param":{"num_deleted":"0","num_feature":"77","num_nodes":"7","size_leaf_vector":"1"}},{"base_weights":[1.7305163E-3,-3.830188E-2,2.3958242E-1,3.2995382E-1,-1.1844604E-2,5.3715217E-3,3.9281834E-2],"categories":[],"categories_nodes":[],"categories_segments":[],"categories_sizes":[],"default_left":[0,0,0,0,0,0,0],"id":87,"left_children":[1,-1,3,5,-1,-1,-1],"loss_changes":[9.926348E-1,0E0,2.5581786E-1,7.636744E-2,0E0,0E0,0E0],"parents":[2147483647,0,0,2,2,3,3],"right_children":[2,-1,4,6,-1,-1,-1],"split_conditions":[-5.991257E-1,-3.830188E-2,-2.135228E-1,-8.4628415E-1,-1.1844604E-2,5.3715217E-3,3.9281834E-2],"split_indices":[14,0,17,8,0,0,0],"split_type":[0,0,0,0,0,0,0],"sum_hessian":[8.844139E0,3.1455584E0,5.6985807E0,4.612688E0,1.0858926E0,1.1989099E0,3.4137783E0],"tree_param":{"num_deleted":"0","num_feature":"77","num_nodes":"7","size_leaf_vector":"1"}},{"base_weights":[1.4656369E-2,3.8999867E-2,-2.3351693E-1,6.367592E-3,-3.8225237E-2,-8.924554E-3,1.1922134E-2],"categories":[],"categories_nodes":[],"categories_segments":[],"categories_sizes":[],"default_left":[0,0,0,0,0,0,0],"id":88,"left_children":[1,-1,3,5,-1,-1,-1],"loss_changes":[1.0165364E0,0E0,2.3814097E-1,4.8535626E-2,0E0,0E0,0E0],"parents":[2147483647,0,0,2,2,3,3],"right_children":[2,-1,4,6,-1,-1,-1],"split_conditions":[-5.989315E-1,3.8999867E-2,-6.4600676E-1,-2.4266471E-1,-3.8225237E-2,-8.924554E-3,1.1922134E-2],"split_indices":[14,0,52,1,0,0,0],"split_type":[0,0,0,0,0,0,0],"sum_hessian":[8.935219E0,3.3289583E0,5.606261E0,2.5120106E0,3.0942502E0,1.4731262E0,1.0388845E0],"tree_param":{"num_deleted":"0","num_feature":"77","num_nodes":"7","size_leaf_vector":"1"}},{"base_weights":[3.13003E-2,-3.7999075E-2,3.0014098E-1,4.1155998E-2,-1.0491644E-2],"categories":[],"categories_nodes":[],"categories_segments":[],"categories_sizes":[],"default_left":[0,0,0,0,0],"id":89,"left_children":[1,-1,3,-1,-1],"loss_changes":[1.1245992E0,0E0,3.178221E-1,0E0,0E0],"parents":[2147483647,0,0,2,2],"right_children":[2,-1,4,-1,-1],"split_conditions":[-5.989315E-1,-3.7999075E-2,-2.135228E-1,4.1155998E-2,-1.0491644E-2],"split_indices":[14,0,17,0,0],"split_type":[0,0,0,0,0],"sum_hessian":[8.139298E0,3.0538561E0,5.085442E0,3.9757738E0,1.1096681E0],"tree_param":{"num_deleted":"0","num_feature":"77","num_nodes":"5","size_leaf_vector":"1"}},{"base_weights":[4.7735326E-2,2.9212555E-1,-3.3206064E-2,3.831474E-2,9.5958404E-2,2.5871762E-3,1.2479417E-2],"categories":[],"categories_nodes":[],"categories_segments":[],"categories_sizes":[],"default_left":[0,0,0,0,0,0,0],"id":90,"left_children":[1,3,-1,-1,5,-1,-1],"loss_changes":[9.1938585E-1,6.899321E-2,0E0,0E0,3.261581E-3,0E0,0E0],"parents":[2147483647,0,0,1,1,4,4],"right_children":[2,4,-1,-1,6,-1,-1],"split_conditions":[-5.384765E-1,-8.378777E-1,-3.3206064E-2,3.831474E-2,-5.5070657E-1,2.5871762E-3,1.2479417E-2],"split_indices":[7,7,0,0,14,0,0],"split_type":[0,0,0,0,0,0,0],"sum_hessian":[7.860121E0,4.92307E0,2.9370506E0,2.7116792E0,2.2113907E0,1.1976527E0,1.0137382E0],"tree_param":{"num_deleted":"0","num_feature":"77","num_nodes":"7","size_leaf_vector":"1"}},{"base_weights":[-3.585321E-2,-3.0001718E-1,3.793489E-2,-6.1307475E-3,-4.0325657E-2],"categories":[],"categories_nodes":[],"categories_segments":[],"categories_sizes":[],"default_left":[0,0,0,0,0],"id":91,"left_children":[1,3,-1,-1,-1],"loss_changes":[1.11498E0,1.2652022E-1,0E0,0E0,0E0],"parents":[2147483647,0,0,1,1],"right_children":[2,4,-1,-1,-1],"split_conditions":[-5.384765E-1,-2.1352357E-1,3.793489E-2,-6.1307475E-3,-4.0325657E-2],"split_indices":[7,17,0,0,0],"split_type":[0,0,0,0,0],"sum_hessian":[8.12797E0,5.137046E0,2.9909234E0,2.0321515E0,3.1048946E0],"tree_param":{"num_deleted":"0","num_feature":"77","num_nodes":"5","size_leaf_vector":"1"}},{"base_weights":[3.849001E-2,2.4087133E-1,-3.555507E-2,-9.738478E-3,3.9744385E-2,2.2958763E-2,-2.2099992E-2],"categories":[],"categories_nodes":[],"categories_segments":[],"categories_sizes":[],"default_left":[0,0,0,0,0,0,0],"id":92,"left_children":[1,3,-1,5,-1,-1,-1],"loss_changes":[7.8475916E-1,2.5453076E-1,0E0,2.2428635E-1,0E0,0E0,0E0],"parents":[2147483647,0,0,1,1,3,3],"right_children":[2,4,-1,6,-1,-1,-1],"split_conditions":[-4.135926E-1,-2.1352357E-1,-3.555507E-2,-8.8012075E-1,3.9744385E-2,2.2958763E-2,-2.2099992E-2],"split_indices":[7,17,0,39,0,0,0],"split_type":[0,0,0,0,0,0,0],"sum_hessian":[7.7667484E0,5.3881044E0,2.3786438E0,2.4324803E0,2.955624E0,1.0998154E0,1.3326651E0],"tree_param":{"num_deleted":"0","num_feature":"77","num_nodes":"7","size_leaf_vector":"1"}},{"base_weights":[-1.2139719E-2,-3.741881E-2,2.1602042E-1,-2.2591118E-2,3.7108887E-2,6.0374835E-3,-1.0503433E-2],"categories":[],"categories_nodes":[],"categories_segments":[],"categories_sizes":[],"default_left":[0,0,0,0,0,0,0],"id":93,"left_children":[1,-1,3,5,-1,-1,-1],"loss_changes":[8.17657E-1,0E0,2.3429921E-1,2.9238936E-2,0E0,0E0,0E0],"parents":[2147483647,0,0,2,2,3,3],"right_children":[2,-1,4,6,-1,-1,-1],"split_conditions":[-5.989315E-1,-3.741881E-2,-6.4600676E-1,-8.6432093E-1,3.7108887E-2,6.0374835E-3,-1.0503433E-2],"split_indices":[14,0,52,40,0,0,0],"split_type":[0,0,0,0,0,0,0],"sum_hessian":[7.9198556E0,2.8142045E0,5.105651E0,2.3475988E0,2.758052E0,1.3035067E0,1.0440922E0],"tree_param":{"num_deleted":"0","num_feature":"77","num_nodes":"7","size_leaf_vector":"1"}},{"base_weights":[-6.1740987E-3,3.6177482E-2,-2.18341E-1,-3.0404907E-1,1.0556339E-2,-1.635286E-3,-3.811986E-2],"categories":[],"categories_nodes":[],"categories_segments":[],"categories_sizes":[],"default_left":[0,0,0,0,0,0,0],"id":94,"left_children":[1,-1,3,5,-1,-1,-1],"loss_changes":[7.433125E-1,0E0,1.992481E-1,1.0516411E-1,0E0,0E0,0E0],"parents":[2147483647,0,0,2,2,3,3],"right_children":[2,-1,4,6,-1,-1,-1],"split_conditions":[-5.989315E-1,3.6177482E-2,-2.135228E-1,-8.5835606E-1,1.0556339E-2,-1.635286E-3,-3.811986E-2],"split_indices":[14,0,17,52,0,0,0],"split_type":[0,0,0,0,0,0,0],"sum_hessian":[7.5096874E0,2.4886394E0,5.021048E0,4.018908E0,1.00214E0,1.1061091E0,2.912799E0],"tree_param":{"num_deleted":"0","num_feature":"77","num_nodes":"7","size_leaf_vector":"1"}},{"base_weights":[-1.828752E-2,2.2137421E-1,-3.3314332E-2,-1.25375455E-2,3.4244005E-2],"categories":[],"categories_nodes":[],"categories_segments":[],"categories_sizes":[],"default_left":[0,0,0,0,0],"id":95,"left_children":[1,3,-1,-1,-1],"loss_changes":[6.874901E-1,2.6202318E-1,0E0,0E0,0E0],"parents":[2147483647,0,0,1,1],"right_children":[2,4,-1,-1,-1],"split_conditions":[-2.1352357E-1,-8.5835606E-1,-3.3314332E-2,-1.25375455E-2,3.4244005E-2],"split_indices":[17,52,0,0,0],"split_type":[0,0,0,0,0],"sum_hessian":[7.1334453E0,4.2189617E0,2.9144835E0,1.0826117E0,3.1363502E0],"tree_param":{"num_deleted":"0","num_feature":"77","num_nodes":"5","size_leaf_vector":"1"}},{"base_weights":[-6.8519018E-3,3.6119327E-2,-2.0616563E-1,-3.2946706E-2,1.753825E-2],"categories":[],"categories_nodes":[],"categories_segments":[],"categories_sizes":[],"default_left":[0,0,0,0,0],"id":96,"left_children":[1,-1,3,-1,-1],"loss_changes":[6.5370333E-1,0E0,3.2871193E-1,0E0,0E0],"parents":[2147483647,0,0,2,2],"right_children":[2,-1,4,-1,-1],"split_conditions":[6.2892765E-1,3.6119327E-2,-2.4177027E-1,-3.2946706E-2,1.753825E-2],"split_indices":[0,0,1,0,0],"split_type":[0,0,0,0,0],"sum_hessian":[6.8962064E0,2.1373227E0,4.7588835E0,3.699764E0,1.0591197E0],"tree_param":{"num_deleted":"0","num_feature":"77","num_nodes":"5","size_leaf_vector":"1"}},{"base_weights":[-1.8599706E-2,-2.5477916E-1,3.6029264E-2,-3.5575986E-2,-3.7726175E-2,1.6593551E-2,-2.1352313E-2],"categories":[],"categories_nodes":[],"categories_segments":[],"categories_sizes":[],"default_left":[0,0,0,0,0,0,0],"id":97,"left_children":[1,3,-1,5,-1,-1,-1],"loss_changes":[8.0582124E-1,1.3427335E-1,0E0,1.4573327E-1,0E0,0E0,0E0],"parents":[2147483647,0,0,1,1,3,3],"right_children":[2,4,-1,6,-1,-1,-1],"split_conditions":[-5.384765E-1,-2.1352357E-1,3.6029264E-2,6.8210185E-2,-3.7726175E-2,1.6593551E-2,-2.1352313E-2],"split_indices":[7,17,0,34,0,0,0],"split_type":[0,0,0,0,0,0,0],"sum_hessian":[6.9791417E0,4.50103E0,2.4781117E0,2.0760493E0,2.4249809E0,1.005218E0,1.0708312E0],"tree_param":{"num_deleted":"0","num_feature":"77","num_nodes":"7","size_leaf_vector":"1"}},{"base_weights":[3.56732E-2,2.380469E-1,-3.383402E-2,-9.625975E-4,3.615116E-2],"categories":[],"categories_nodes":[],"categories_segments":[],"categories_sizes":[],"default_left":[0,0,0,0,0],"id":98,"left_children":[1,3,-1,-1,-1],"loss_changes":[6.929316E-1,1.8196908E-1,0E0,0E0,0E0],"parents":[2147483647,0,0,1,1],"right_children":[2,4,-1,-1,-1],"split_conditions":[-4.3528396E-1,-2.4266471E-1,-3.383402E-2,-9.625975E-4,3.615116E-2],"split_indices":[8,1,0,0,0],"split_type":[0,0,0,0,0],"sum_hessian":[7.090724E0,4.8370137E0,2.25371E0,1.9158373E0,2.9211767E0],"tree_param":{"num_deleted":"0","num_feature":"77","num_nodes":"5","size_leaf_vector":"1"}},{"base_weights":[-3.596606E-2,-2.2607346E-1,3.418859E-2,1.1764036E-4,-3.3010542E-2],"categories":[],"categories_nodes":[],"categories_segments":[],"categories_sizes":[],"default_left":[0,0,0,0,0],"id":99,"left_children":[1,3,-1,-1,-1],"loss_changes":[6.5577483E-1,1.4128092E-1,0E0,0E0,0E0],"parents":[2147483647,0,0,1,1],"right_children":[2,4,-1,-1,-1],"split_conditions":[-4.1352698E-1,-2.4266471E-1,3.418859E-2,1.1764036E-4,-3.3010542E-2],"split_indices":[38,1,0,0,0],"split_type":[0,0,0,0,0],"sum_hessian":[7.053233E0,4.9596095E0,2.0936239E0,1.8679366E0,3.0916727E0],"tree_param":{"num_deleted":"0","num_feature":"77","num_nodes":"5","size_leaf_vector":"1"}}]},"name":"gbtree"},"learner_model_param":{"base_score":"5E-1","boost_from_average":"1","num_class":"2","num_feature":"77","num_target":"1"},"objective":{"name":"multi:softprob","softmax_multiclass_param":{"num_class":"2"}}},"version":[3,0,0]}